tree
version=v4
num_class=1
num_tree_per_iteration=1
label_index=0
max_feature_idx=74
objective=binary sigmoid:1
feature_names=Column_0 Column_1 Column_2 Column_3 Column_4 Column_5 Column_6 Column_7 Column_8 Column_9 Column_10 Column_11 Column_12 Column_13 Column_14 Column_15 Column_16 Column_17 Column_18 Column_19 Column_20 Column_21 Column_22 Column_23 Column_24 Column_25 Column_26 Column_27 Column_28 Column_29 Column_30 Column_31 Column_32 Column_33 Column_34 Column_35 Column_36 Column_37 Column_38 Column_39 Column_40 Column_41 Column_42 Column_43 Column_44 Column_45 Column_46 Column_47 Column_48 Column_49 Column_50 Column_51 Column_52 Column_53 Column_54 Column_55 Column_56 Column_57 Column_58 Column_59 Column_60 Column_61 Column_62 Column_63 Column_64 Column_65 Column_66 Column_67 Column_68 Column_69 Column_70 Column_71 Column_72 Column_73 Column_74
feature_infos=[0:12] [1:99] [0:21.25] [1:99] [0:3] [0:3] [1:99] [5:1558] [0:0] [0:81] [1:8] [0:3390] [0:8] [0:12] [0:7] [0:4] [0:5] [0:12] [0:6] [0:9] [0:2] [0:7] [0:7] none none [-97:98] [0:12] [0:3] [0:6] [0:12] [0:5] [0:10] [0:3] [0:6] [0:9] [0:5] [0:11] [0:5] [1:900] [1:900] [-1.8333333730697632:757.5] [-4375.33349609375:9062.599609375] [1:2] [0:1] [0:100] [0:1] [0:100] none [0:3] [0:1] [0:160] [0:1] [0:160] [0:1] [0:160] [0:1] [0:160] [0:1] [0:160] [0:1] [0:160] [1:18] [5557:35229] [1:18] [850:9120] [1:1] [0:1] [0:1] [1:1] -1:0:1:2:3 -1:6:5:7:9:4:10:3:1:2:8 -1:1:0:2 -1:0:1:5:2:3 -1:4:5:0:2:1:3 -1:4:0:1:2:3
tree_sizes=2021 2416 2499 2359 2369 1996 2980 3565 2071 2974 2183 3553 3223 2504 3246 3567 3190 3580 2777 3053 3070 3499 3478 3160 3574 3028 3485 3291 3509 3501 3490 3540 3543 3435 3603 3367 3450 3514 3444 3577 3558 3487 3579 3531 3489 3581 3572 3451 3531 3459 3548 3490 3463 3627 3511 3508 3453 3547 3433 3421 3529 3530 3515 3503 3492 3515 3546 3535 3472 3519 3483 3494 3611 3480 3536 3500 3500 3506 3540 3360 3510 3482 3577 3546 3625 3521 3493 3623 3547 3422 3437 3497 3517 3501 3464 3464 3481 3509 3536 3578 3443 3468 3506 3448 3480 3538 3456 3411 3388 3584 3524 3456 3483 3490 3465 3473 3454 3453 3562 3556 3524 3425 3580 3437 3357 3496 3545 3503 3484 3479 3467 3506 3501 3424 3615 3434 3461 3434 3498 3430 3551 3515 3567 3540 3421 3541 3531 3487 3540 3403 3564 3530 3532 3491 3505 3510 3528 3489 3446 3484 3544 3479 3559 3466 3461 3424 3561 3560 3461 3434 3436 3499 3511 3526 3443 3493 3521 3501 3475 3399 3536 3478 3485

Tree=0
num_leaves=18
num_cat=0
split_feature=43 43 3 6 43 2 40 64 59 59 64 59 59 59 64 53 59
split_gain=1950.84 474.226 161.989 36.4568 27.9545 18.2833 17.3717 13.9518 7.92939 7.1885 5.68596 4.16485 4.04116 3.03213 2.03858 1.86355 1.22475
threshold=0.019999999552965168 0.24499999731779101 1.5000000000000002 40.500000000000007 0.21240601688623431 1.3715431690216067 0.77350428700447094 6165.0000000000009 0.052459580823779113 0.093883547931909575 6185.0000000000009 0.03141447342932225 0.2043135464191437 0.035929432138800628 6425.0000000000009 0.13060200959444049 0.14590936154127124
decision_type=8 10 8 10 8 10 8 10 8 8 8 10 10 10 8 10 10
left_child=-1 2 5 4 7 -2 -6 -4 13 11 12 -5 16 -8 -12 -11 -10
right_child=1 -3 3 9 6 -7 8 -9 10 15 14 -13 -14 -15 -16 -17 -18
leaf_value=-2.5174664189134863 -2.4050941510120172 -2.2893263993061508 -2.4229168685552507 -2.4797419864649046 -2.4797419864649046 -2.4650319138599279 -2.4629065780738735 -2.4690028721950816 -2.4488571045610272 -2.4923164046576511 -2.4797419864649046 -2.4576898740270874 -2.4238416792596191 -2.4797419864649046 -2.4600653720184011 -2.4797419864649046 -2.473713956570645
leaf_weight=829.77054633200169 120.95323133468628 21.965563237667084 71.245446994900703 18.399725049734116 28.312755212187767 15.047837153077124 79.660825118422508 20.1826441437006 180.07482849061489 22.250830292701721 14.833886861801146 22.108196765184402 25.887985244393349 18.827625632286072 74.95391871035099 17.187340065836906 18.756308868527412
leaf_count=11635 1696 308 999 258 397 211 1117 283 2525 312 208 310 363 264 1051 241 263
internal_value=-2.47993 -2.43971 -2.44525 -2.45364 -2.4503 -2.41018 -2.45502 -2.43083 -2.4532 -2.47783 -2.4499 -2.46679 -2.44584 -2.4658 -2.46246 -2.48621 -2.45038
internal_weight=1600.42 770.649 748.683 612.682 532.736 136.001 441.308 91.4281 412.995 79.9461 314.507 40.5079 224.719 98.4885 89.7878 39.4382 198.831
internal_count=22441 10806 10498 8591 7470 1907 6188 1282 5791 1121 4410 568 3151 1381 1259 553 2788
is_linear=0
shrinkage=1


Tree=1
num_leaves=22
num_cat=0
split_feature=43 43 3 7 45 3 2 64 43 6 1 2 2 64 55 64 6 7 46 64 64
split_gain=1822.54 364.518 134.247 52.1219 42.9673 22.4703 13.0895 11.0329 8.15637 7.69994 5.2399 5.23455 5.78175 4.60742 4.15216 3.58009 2.10393 1.59901 1.09729 0.761964 2.80208
threshold=0.019999999552965168 0.24499999731779101 1.5000000000000002 31.500000000000004 0.024540800601243976 4.5000000000000009 1.3715431690216067 6305.0000000000009 0.044999999925494201 40.500000000000007 61.833333969116218 3.2008522748947148 0.58111113309860241 4265.0000000000009 0.11566332355141641 5465.0000000000009 5.5000000000000009 336.50000000000006 89.500000000000014 4695.0000000000009 3605.0000000000005
decision_type=8 10 8 8 8 10 10 10 10 8 8 10 8 10 8 8 10 10 2 10 8
left_child=-1 2 6 13 9 7 17 -6 11 15 -11 12 -7 -4 -15 -5 -17 -2 -12 20 -20
right_child=1 -3 3 4 5 8 -8 -9 -10 10 18 -13 -14 14 -16 16 -18 -19 19 -21 -22
leaf_value=-0.037599143539743349 0.071926475634383397 0.16077337656423421 0.0075562257947887016 0.031201058279623266 0.0476161394636316 0 0.014153652014001107 0.020823930831019612 0.03669371651057711 -0.0054361562953423913 0 -0.0025049079602204919 0.023419492483918086 -0.017190048019679813 0 0 0.015098003258551908 0.026721950707865892 0.012768128485792675 0.016225442689689559 -0.00077264021482758097
leaf_weight=803.64353906363249 111.31586939096451 25.731804728507996 21.048375278711319 51.132217615842819 190.87179922312498 19.738625563681126 15.235907331109045 53.669249720871449 21.712678164243698 16.565733075141907 18.179433226585388 18.833946235477924 28.946290865540504 29.572240240871906 18.131388939917088 17.244528122246265 18.197635114192963 17.46429055929184 20.576551705598831 57.208912037312984 23.394100330770016
leaf_count=11635 1466 308 289 698 2610 272 211 743 296 232 250 263 400 408 250 238 251 230 282 788 321
internal_value=-0.000144952 0.0375578 0.0324794 0.0247681 0.0283521 0.0366481 0.0635185 0.0426916 0.0175596 0.0149014 0.00773267 0.00787375 0.0143348 -0.00234574 -0.00955885 0.0238609 0.00782965 0.0677645 0.0107637 0.0122028 0.00327366
internal_weight=1598.42 794.772 769.04 625.024 556.272 333.773 144.016 244.541 89.2315 222.499 135.925 67.5189 48.6849 68.752 47.7036 86.5744 35.4422 128.78 119.359 101.18 43.9707
internal_count=22441 10806 10498 8591 7644 4584 1907 3353 1231 3060 1873 935 672 947 658 1187 489 1696 1641 1391 603
is_linear=0
shrinkage=0.0352768


Tree=2
num_leaves=23
num_cat=0
split_feature=43 43 3 7 45 3 9 45 64 43 43 25 7 64 55 7 64 9 64 7 9 7
split_gain=1705.88 288.236 111.664 47.4415 37.9401 17.473 9.50211 10.4287 9.42858 8.56791 7.21466 5.47988 4.90212 4.27785 4.00338 3.5316 4.27988 2.48492 2.43093 2.20646 1.03985 0.596887
threshold=0.019999999552965168 0.25499999523162847 1.5000000000000002 31.500000000000004 0.024540800601243976 4.5000000000000009 17.500000000000004 0.038711288943886764 6305.0000000000009 0.044999999925494201 0.057983193546533592 -12.499999999999998 63.500000000000007 4265.0000000000009 0.11566332355141641 217.50000000000003 5405.0000000000009 16.500000000000004 3365.0000000000005 211.50000000000003 8.5000000000000018 70.500000000000014
decision_type=8 10 8 8 8 10 2 8 10 10 10 10 8 10 8 8 8 2 10 10 2 8
left_child=-1 2 6 13 10 8 7 -2 21 11 12 19 -5 -4 -15 16 -14 18 -17 -7 -20 -6
right_child=1 -3 3 4 5 9 -8 -9 -10 -11 -12 -13 15 14 -16 17 -18 -19 20 -21 -22 -23
leaf_value=-0.037477682675855536 0.037442815684995766 0.1408341869323024 0.0071141097806501179 -0.001874487071425759 0.014685713172123043 0.021913428473028324 0.017035627643785727 0.073731327601361557 0.019518158415849189 0.036249892485562353 0.032487958347989371 -0.0003520853576782731 0.030938485719026486 -0.016872424300402353 0 0 0.0012102486495946425 0 0 0 0.013835727470065796 0.046362662468776551
leaf_weight=778.26967284083366 50.12634489685297 28.1323122382164 21.277634806931019 16.465110592544079 18.304233469069004 24.482610046863556 18.582153163850307 82.911289170384407 54.90338659286499 22.770681671798229 28.183889828622341 28.678096167743206 27.897996060550213 29.146368555724621 18.131388939917088 22.620071902871132 20.592927262187004 21.809148743748665 15.295338302850721 14.894243158400057 72.139614425599575 180.52355063706636
leaf_count=11635 633 296 290 225 240 336 234 1042 746 300 377 395 377 408 250 308 284 297 208 204 984 2372
internal_value=-0.00010337 0.0353069 0.0307122 0.0236284 0.0269699 0.0346224 0.0583355 0.0624802 0.0399453 0.0173117 0.0142783 0.00750232 0.010427 -0.00223579 -0.00929029 0.012295 0.0218995 0.00725125 0.00947598 0.0158511 0.0120491 0.0444443
internal_weight=1596.14 817.868 789.736 638.116 569.561 344.557 151.62 133.038 253.731 90.8256 225.004 68.0549 196.82 68.5554 47.2778 180.355 48.4909 131.864 110.055 39.3769 87.435 198.828
internal_count=22441 10806 10510 8601 7653 4593 1909 1675 3358 1235 3060 935 2683 948 658 2458 661 1797 1500 540 1192 2612
is_linear=0
shrinkage=0.0352768


Tree=3
num_leaves=22
num_cat=0
split_feature=43 43 3 7 63 45 3 43 46 9 9 1 9 9 63 3 1 2 25 53 7
split_gain=1627.38 239.887 88.4531 52.3337 33.1644 32.4029 12.0879 5.38191 5.0595 3.87839 4.19211 4.44197 3.05815 2.90469 2.63902 2.63237 1.89033 1.88773 1.28539 1.07106 0.0725465
threshold=0.019999999552965168 0.16499999910593036 1.5000000000000002 31.500000000000004 5.5000000000000009 0.027973395772278312 20.500000000000004 0.25499999523162847 48.500000000000007 3.0000000000000004 13.500000000000002 29.166666984558109 17.500000000000004 13.500000000000002 1.5000000000000002 53.500000000000007 67.500000000000014 2.0716117620468144 22.500000000000004 0.068278945982456221 153.50000000000003
decision_type=8 10 8 8 8 8 10 10 2 2 2 8 2 2 10 10 8 10 8 8 10
left_child=-1 2 12 13 -3 8 14 -6 -5 -10 -11 20 -2 -4 -7 -8 -13 -16 -15 -18 -12
right_child=1 4 3 5 7 6 15 -9 9 10 11 16 -14 18 17 -17 19 -19 -20 -21 -22
leaf_value=-0.037404742534616953 0.055874453959902509 0.038182238121479223 0 0 0.068175376210125704 0.011059644573963074 0 0.14425167318538709 0 0.029974833796726 0.0067628060119439047 -0.00031491796166355636 0.016408238942443931 -0.016476304794510038 0.037112457058003458 0.014645626200153545 0 0.0077384931790260352 0 0.010351777961256345 0.029155826356708436
leaf_weight=751.17179877310991 129.25492439419031 21.879332572221756 22.353393360972404 15.208292819559572 26.320821173489094 26.354627296328545 16.368187017738819 22.467450708150864 29.412075474858284 35.052994407713413 24.55495697259903 15.62669190764427 16.89896572381258 26.893666781485081 258.36245392262936 16.381532795727253 28.16702164709568 17.050390094518661 16.226699858903885 54.338727213442326 21.408364787697792
leaf_count=11597 1549 249 310 205 328 349 221 212 396 473 327 213 210 374 3330 225 381 223 226 732 286
internal_value=0.000142419 0.0338725 0.0276086 0.0212165 0.0953532 0.0247558 0.0320002 0.113764 0.012977 0.0144948 0.016439 0.0115425 0.052746 -0.0067229 0.0343436 0.00539446 0.00500307 0.035907 -0.0119854 0.007535 0.0213393
internal_weight=1591.75 840.582 769.914 623.76 70.6676 558.286 334.517 48.7883 223.769 208.561 179.149 144.096 146.154 65.4738 301.767 32.7497 98.1324 275.413 43.1204 82.5057 45.9633
internal_count=22416 10819 10030 8271 789 7361 4348 540 3013 2808 2412 1939 1759 910 3902 446 1326 3553 600 1113 613
is_linear=0
shrinkage=0.0352768


Tree=4
num_leaves=22
num_cat=0
split_feature=43 43 6 63 45 1 40 40 45 1 63 45 9 1 63 55 55 55 55 53 63
split_gain=1528.26 203.995 65.7104 23.5395 21.0243 16.4597 15.5307 10.3457 6.53467 6.06143 8.87973 8.77873 5.75699 2.5484 1.41429 0.777794 4.08684 2.86936 1.85008 0.297898 0.0648444
threshold=0.019999999552965168 0.16499999910593036 1.5000000000000002 5.5000000000000009 0.073350071907043471 35.833333969116218 29.852941513061527 3.3501683473587041 0.039736840873956687 33.833333969116218 1.5000000000000002 1.0000000180025095e-35 13.500000000000002 47.833333969116218 8.5000000000000018 0.14377042651176455 0.081165537238121047 0.21073190867900851 0.064632162451744093 0.093883547931909575 8.5000000000000018
decision_type=8 10 8 8 8 10 8 8 10 8 10 10 2 10 10 10 8 10 10 8 8
left_child=-1 2 8 -3 5 7 -6 20 -2 10 -9 -11 -7 -14 -15 16 18 -17 -13 -8 -4
right_child=1 3 4 -5 6 12 19 9 -10 11 -12 15 13 14 -16 17 -18 -19 -20 -21 -22
leaf_value=-0.037291634091406435 0.027761767798808599 0.036073891958994374 0.0019057988067302893 0.1023562353058205 0 0.01384895725437044 0.025487752171655834 0 0.063776666850175454 0 0.029786800736301841 0.013843380951700323 -0.014239906552013791 -0.0043657791806406502 0.0083046226989775072 0 0.028529087719533691 0.015023028803353676 0 0.047792461009632754 0
leaf_weight=727.30664892494678 36.043340086936951 22.554030016064644 18.360185876488686 52.839974246919155 20.021090798079967 28.836808755993843 58.536865547299385 21.052302747964859 63.523017145693302 35.432221047580242 187.76114216446877 59.020087756216526 16.628714859485626 19.017465814948082 15.3405529782176 18.846601895987988 69.954022169113159 18.134641773998737 18.657548911869526 65.271455727517605 15.965965718030928
leaf_count=11597 423 249 246 540 257 391 740 276 724 476 2403 759 226 263 209 242 896 233 239 820 207
internal_value=0.000175406 0.0319758 0.0261373 0.0869441 0.0216906 0.0177547 0.0347882 0.0203169 0.0535599 0.0218007 0.0273398 0.0155639 0.00103103 -0.004233 0 0.0185941 0.0206722 0.00583959 0.0109339 0.0393878 0
internal_weight=1589.1 861.798 786.404 75.394 686.838 543.008 143.829 463.185 99.5664 428.859 208.813 220.045 79.8235 50.9867 34.358 184.613 147.632 36.9812 77.6776 123.808 34.3262
internal_count=22416 10819 10030 789 8883 7066 1817 5977 1147 5524 2679 2845 1089 698 472 2369 1894 475 998 1560 453
is_linear=0
shrinkage=0.0352768


Tree=5
num_leaves=18
num_cat=0
split_feature=43 43 6 43 64 1 40 9 46 46 64 61 63 40 25 63 25
split_gain=1437.2 173.085 52.824 21.8897 20.5577 15.9167 15.7635 7.51956 6.95922 7.25894 5.76968 2.56879 2.27734 1.12244 0.34349 0.193037 0.155996
threshold=0.019999999552965168 0.12749999761581424 1.5000000000000002 0.25499999523162847 3175.0000000000005 30.583333015441898 3.3501683473587041 12.500000000000002 38.500000000000007 91.500000000000014 7385.0000000000009 8.5000000000000018 12.500000000000002 14.392857074737551 -4.4999999999999991 6.5000000000000009 -18.499999999999996
decision_type=8 10 8 10 8 10 8 2 2 2 10 2 10 10 10 8 10
left_child=-1 2 -2 13 -4 6 15 14 -8 -10 12 16 -11 -3 -7 -6 -9
right_child=1 3 4 -5 5 7 8 11 9 10 -12 -13 -14 -15 -16 -17 -18
leaf_value=-0.037181785081691628 0.048746476887574525 0.057957440861224875 0.035697919478478363 0.10173056533772269 0 0.021718497426233167 0 0 0.03222284477649201 0.020370969319041296 0 0.00096757556562135751 0.0024271691492974627 0.018684089184018225 0.0002288011265420278 -0.0033821215627948494 -0.013318824853801276
leaf_weight=704.14547878876328 99.788551114499569 47.940844923257828 103.07999423146248 36.543806612491608 16.675559282302856 15.721826605498789 16.190326906740665 17.01098744571209 105.29174689948559 276.10241248458624 21.769774004817009 26.076934568583965 28.244381502270699 17.809518106281757 16.563309095799923 17.241407588124275 20.136602476239204
leaf_count=11597 1104 552 1295 298 223 208 204 229 1313 3478 285 352 352 206 219 224 277
internal_value=0.000205787 0.0302314 0.0240719 0.0733447 0.0200006 0.0167467 0.019384 0.00186264 0.0211522 0.021999 0.0179528 -0.00364955 0.0191929 0.0508746 0.0156118 -0.000172039 -0.00995318
internal_weight=1586.33 882.188 779.894 102.294 680.105 577.025 481.516 95.5097 447.599 431.408 326.117 63.2245 304.347 65.7504 32.2851 33.917 37.1476
internal_count=22416 10819 9763 1056 8659 7364 6079 1285 5632 5428 4115 858 3830 758 427 447 506
is_linear=0
shrinkage=0.0352768


Tree=6
num_leaves=28
num_cat=0
split_feature=43 43 6 7 45 63 9 59 64 64 45 6 7 55 45 2 7 6 6 6 7 59 64 43 59 64 64
split_gain=1320.43 140.038 48.8534 46.3408 25.5891 17.256 9.10271 14.7651 10.2354 8.02118 7.42502 6.29069 5.2349 5.1357 4.63595 3.3479 12.9268 2.51488 2.01459 1.6678 1.63191 1.41725 2.9162 1.20531 1.03845 0.873136 0.120814
threshold=0.019999999552965168 0.16499999910593036 1.5000000000000002 31.500000000000004 0.024540800601243976 5.5000000000000009 14.500000000000002 0.060708437114954002 6485.0000000000009 4235.0000000000009 0.033520599827170379 40.500000000000007 69.500000000000014 0.13215343654155734 0.034683240577578552 0.32468593120574957 209.50000000000003 67.000000000000014 25.000000000000004 39.500000000000007 133.50000000000003 0.030418691225349907 4745.0000000000009 0.24499999731779101 0.12394855916500093 6085.0000000000009 4595.0000000000009
decision_type=8 10 8 8 8 8 2 8 10 10 8 8 8 8 10 8 10 8 10 8 10 10 10 10 10 8 10
left_child=-1 2 14 9 11 -3 10 19 18 -4 -6 15 -12 -11 -2 20 -17 -13 -9 -8 -5 22 -19 -7 25 -23 -21
right_child=1 5 3 4 6 23 7 8 -10 13 12 17 -14 -15 -16 16 -18 21 -20 26 -22 24 -24 -25 -26 -27 -28
leaf_value=-0.037024341695285477 0.023291491467948861 0.029103503000188317 0.0078041434974983536 0 0.011257032764466509 0.050694256995383845 0 0.033687851831134596 0.0030593697931341111 -0.02130040755045378 0.0091755966752602464 -0.0024657209095768143 0.044466189482817699 0 0.054153170995092821 0.036509534359283932 0 -0.0065458266134013187 0.0051720491008024842 0 0.011689244644844218 0.015967887397680607 0.009766625412495164 0.1041765957535131 0 0 0.011875124534752229
leaf_weight=682.5539178699255 37.60010090470314 24.55045086145401 23.837600380182266 19.288769736886024 30.28848522156477 30.365685157477856 26.52410439401865 119.79368153959513 31.182661607861519 33.384525582194328 18.516587890684605 15.806366667151449 109.39841028302908 19.606816485524178 70.142040237784386 38.590507045388222 18.601495698094368 21.585030347108841 16.639790654182434 18.650846585631371 22.345816060900688 41.080120451748371 22.759715840220451 28.892475381493568 25.159900471568108 15.497593022882937 22.240724325180054
leaf_count=11612 415 250 307 241 370 318 326 1420 394 456 225 215 1320 255 732 488 236 285 215 226 279 534 299 213 329 204 276
internal_value=-3.31313e-05 0.0278385 0.0229218 0.019043 0.0222097 0.0712038 0.0280351 0.0213646 0.027103 -0.00523423 0.0363717 0.0118518 0.0407953 -0.0135942 0.0457642 0.019206 0.0257546 0.00543498 0.0314055 0.00451741 0.00583625 0.00750317 0 0.0836724 0.010299 0.0131 0.00888166
internal_weight=1584.88 902.33 818.522 710.78 633.951 83.8086 393.235 235.032 167.616 76.8289 158.203 240.715 127.915 52.9913 107.742 98.8266 57.192 141.889 136.433 67.4157 41.6346 126.082 44.3447 59.2582 81.7376 56.5777 40.8916
internal_count=22440 10828 10047 8900 7882 781 4772 2857 2029 1018 1915 3110 1545 711 1147 1244 724 1866 1635 828 520 1651 584 531 1067 738 502
is_linear=0
shrinkage=0.0352768


Tree=7
num_leaves=33
num_cat=0
split_feature=5 1 45 7 45 45 40 45 7 40 6 50 59 1 55 16 6 62 64 6 7 59 62 12 52 59 61 55 7 6 59 14
split_gain=359.617 184.372 103.118 53.9115 32.549 22.3038 18.3735 16.9546 16.1112 14.0608 13.6953 13.0591 11.8895 9.87028 9.49093 8.67981 9.10178 8.47865 7.99311 5.76407 5.32463 4.86565 7.09526 4.37617 3.71276 3.24987 1.53644 1.52034 1.20389 0.9905 0.657366 0.562438
threshold=1.0000000180025095e-35 16.166666984558109 0.024540800601243976 70.500000000000014 0.05115123093128205 0.07387914136052133 59.164216995239265 0.037855265662074096 106.50000000000001 22.585858345031742 5.5000000000000009 35.500000000000007 0.040202019736170776 2.8333333730697636 0.090615838766098036 1.0000000180025095e-35 4.5000000000000009 13713.500000000002 5165.0000000000009 40.500000000000007 140.50000000000003 0.058017766103148467 11218.500000000002 1.0000000180025095e-35 17.500000000000004 0.16727494448423388 13.500000000000002 0.052015691995620734 62.500000000000007 18.500000000000004 0.19634512811899188 1.0000000180025095e-35
decision_type=2 10 8 8 10 10 10 8 10 10 8 2 8 10 8 2 8 2 8 10 10 8 2 2 2 10 2 10 10 10 8 2
left_child=1 2 6 14 8 15 10 17 31 11 13 -6 -7 -1 -4 16 -5 -2 -14 29 30 -18 -23 -16 27 28 -24 -12 -26 -10 -13 -3
right_child=7 4 3 5 9 12 -8 -9 19 -11 24 20 18 -15 23 -17 21 -19 -20 -21 -22 22 26 -25 25 -27 -28 -29 -30 -31 -32 -33
leaf_value=0 0.0039273151179994277 -0.030911016345382538 -0.018750518344484338 0.0348119177796027 0.012568220473375805 0.0039823069201926154 0.023852270499456076 0.051742540941375814 -0.0058623283421303726 0.022318840436455007 0.00843266936868514 -0.023064243404122799 0.056577910286716424 -0.025966175804368097 -0.0067704667126884692 -0.00028904647468950347 0 0.03457394843178388 0.020824569758417448 -0.017889650675473268 0 0 0.021465635796951404 0.012359947552395275 -0.010920111652838183 0.00046909944177071078 0 -0.0012355753874713508 0 0.0033151725709160231 0 -0.0050035976709595833
leaf_weight=16.812913935631514 32.524924270808697 322.35682662576437 42.819739144295454 38.024640541523695 17.809068478643894 20.32322034984827 13.871477406471966 134.18088134750724 24.594380840659142 15.397834129631518 22.831340845674276 52.27965996041894 43.783785808831453 94.028232973068953 18.537990096956491 22.952290691435337 48.693903047591448 37.483959082514048 36.570802129805088 84.273982837796211 21.328066345304251 20.098920222371817 94.765528373420238 26.005662880837917 139.76855618879199 20.140689786523581 16.770279310643673 26.704974733293056 26.476124156266451 19.329420465976 13.478032778948544 15.308627400547264
leaf_count=230 371 5433 607 473 251 244 176 1353 377 199 321 812 501 1530 272 323 632 425 444 1351 308 255 1198 319 2051 285 209 395 375 281 204 235
internal_value=0 -0.00657342 0.00440971 0.0161398 -0.0215355 0.0225072 -0.00920976 0.0431795 -0.0257914 -0.00368187 -0.0111634 -0.00939021 0.0373303 -0.0216407 -0.00721044 0.0152847 0.0175029 0.0231035 0.0436005 -0.0126202 -0.0157006 0.0124711 0.0160035 0.00171755 -0.00541165 -0.00780527 0.0194226 0.000991645 -0.00958542 0 -0.0204259 -0.0301996
internal_weight=1580.33 1376.14 789.981 429.347 586.156 341.983 360.634 204.19 465.863 120.293 346.763 104.895 100.678 110.841 87.3634 241.306 218.353 70.0089 80.3546 128.198 87.0858 180.329 131.635 44.5437 235.922 186.385 111.536 49.5363 166.245 43.9238 65.7577 337.665
internal_count=22440 20291 10840 5477 9451 4279 5363 2149 7677 1774 5187 1575 1189 1760 1198 3090 2767 796 945 2009 1324 2294 1662 591 3427 2711 1407 716 2426 658 1016 5668
is_linear=0
shrinkage=0.0352768


Tree=8
num_leaves=19
num_cat=0
split_feature=43 43 5 6 43 40 2 45 9 9 46 9 40 45 6 9 9 9
split_gain=1215.17 118.179 37.1345 18.1147 13.3603 11.4329 9.73328 9.56685 6.26194 8.09542 3.21087 3.67032 1.75245 0.912019 2.08376 0.862525 0.634942 0.066519
threshold=0.019999999552965168 0.12749999761581424 1.0000000180025095e-35 40.500000000000007 0.25499999523162847 1.1207729578018191 1.3715431690216067 0.032433379441499717 14.500000000000002 3.0000000000000004 51.500000000000007 3.0000000000000004 10.025000095367433 0.035401003435254104 70.500000000000014 13.500000000000002 13.500000000000002 15.500000000000002
decision_type=8 10 2 10 10 8 8 8 2 2 2 2 10 10 10 2 2 2
left_child=-1 2 3 5 12 17 -4 10 9 -9 -7 -12 -3 15 -15 -5 -13 -2
right_child=1 4 6 13 -6 7 -8 8 -10 -11 11 16 -14 14 -16 -17 -18 -19
leaf_value=-0.036870947856686639 0.0012474436276656924 0.047988078010178709 0.041157797472362388 0 0.081952413122173759 0 0.011092616863063549 0.013231462940824638 0.018096518979923832 0.042425900402517286 0 0.02543490585732168 0.01374633202137711 0.012294388942382113 0 -0.0065719865877782065 0.012595798320538547 -0.0014354081289991126
leaf_weight=650.72264020144939 17.803984448313713 51.564223475754261 132.44650382548571 16.130216151475906 41.408865638077259 16.325798414647579 33.492767035961151 39.002325318753719 164.71174064278603 69.14975793659687 34.472000405192375 42.589360296726227 19.052315160632133 18.676108047366142 17.201026573777199 28.452308818697929 165.15538381040096 19.959456257522106
leaf_count=11612 234 543 1337 221 293 212 358 454 1953 811 439 532 208 250 227 401 2093 262
internal_value=0 0.0258485 0.0207333 0.0163683 0.0599992 0.018571 0.0362706 0.0198945 0.0252373 0.0339153 0.0134557 0.0144674 0.0417441 0 0.00452294 -0.00257872 0.0162785 0
internal_weight=1578.32 927.594 815.569 649.629 112.025 569.17 165.939 531.406 272.864 108.152 258.543 242.217 70.6165 80.4597 35.8771 44.5825 207.745 37.7634
internal_count=22440 10828 9784 8089 1044 6990 1695 6494 3218 1265 3276 3064 751 1099 477 622 2625 496
is_linear=0
shrinkage=0.0352768


Tree=9
num_leaves=28
num_cat=0
split_feature=43 43 3 7 45 40 9 64 43 3 64 59 64 55 55 59 7 9 7 9 59 7 9 9 55 55 64
split_gain=1195.42 115.601 31.6231 36.1802 21.5419 16.3644 6.69969 5.82822 4.49624 4.06209 6.94324 8.66044 3.82441 3.59636 2.63202 2.52925 3.07891 6.30267 4.11233 2.59901 2.38089 2.04053 1.18612 2.21631 0.792593 0.367953 0.0368312
threshold=0.019999999552965168 0.16499999910593036 1.5000000000000002 31.500000000000004 0.024540800601243976 0.71815368533134472 17.500000000000004 4235.0000000000009 0.25499999523162847 20.500000000000004 2565.0000000000005 0.060708437114954002 7585.0000000000009 0.11566332355141641 0.12237557023763658 0.030418691225349907 140.50000000000003 16.500000000000004 224.50000000000003 7.5000000000000009 0.088335335254669203 303.50000000000006 13.500000000000002 15.500000000000002 0.034602491185069091 0.065288435667753233 6265.0000000000009
decision_type=8 10 8 8 8 8 2 10 10 10 8 8 8 8 8 8 10 2 10 2 8 10 2 2 10 8 8
left_child=-1 2 6 7 12 -6 21 -4 -3 10 -7 14 15 -9 24 25 17 19 -18 -17 -11 -2 -21 -24 -12 -5 -13
right_child=1 8 3 4 5 9 -8 13 -10 20 11 26 -14 -15 -16 16 18 -19 -20 22 -22 -23 23 -25 -26 -27 -28
leaf_value=-0.036771107198843939 0.041102424368740731 0.041591173136304109 0.0048905579013486921 0.0038901106319884859 0 0.05163178633105002 0.0057889597289444688 -0.02099286113611248 0.079830311569130771 0.015445245080850609 0.0076250280637650989 0.032685508596518725 0 0 0.023431651568194392 0 0.038742752545012152 -0.0039418073661701136 0.0067194890908726605 0.027055935665930543 0 0.013209921759422361 0 0.01265251183192059 0 0 0.017207990394508658
leaf_weight=631.68519240990281 132.25355060398579 49.665194630622864 20.854390986263752 26.42489180713892 19.795970037579536 27.010358415544033 20.680155634880066 26.884444251656532 43.120354220271111 16.030621245503426 29.080906093120575 162.29785495251417 17.850606568157673 17.949880093336105 19.010515086352825 15.88360086083412 16.377852499485016 22.67247287184 27.611931845545769 18.368251293897629 16.070230096578598 23.824073895812035 23.979597344994545 48.093023046851158 29.261990942060947 15.765502959489821 59.966849707067013
leaf_count=11646 1298 495 272 344 253 301 217 383 289 211 345 1816 237 240 222 207 204 293 354 229 211 241 308 620 344 204 718
internal_value=0.000598497 0.0257205 0.0212226 0.0171792 0.0198965 0.025354 0.0352734 -0.00588736 0.0632293 0.027094 0.0285534 0.0254003 0.0101957 -0.0136501 0.0112119 0.0115825 0.013563 0.0085388 0.0236122 0.0124643 0.00703872 0.0381062 0.014691 0.00855598 0.00386409 8.84477e-05 0.0294686
internal_weight=1578.47 946.785 854 677.242 611.553 378.525 176.758 65.6887 92.7855 358.729 326.628 299.618 233.028 44.8343 77.3534 215.177 172.987 128.997 43.9898 106.324 32.1009 156.078 90.4409 72.0726 58.3429 42.1904 222.265
internal_count=22502 10856 10072 8316 7421 4421 1756 895 784 4168 3746 3445 3000 623 911 2763 2215 1657 558 1364 422 1539 1157 928 689 548 2534
is_linear=0
shrinkage=0.0352768


Tree=10
num_leaves=20
num_cat=0
split_feature=43 43 5 45 40 6 9 46 6 43 2 9 9 40 1 9 9 1 9
split_gain=1130.28 100.769 27.5852 14.6166 15.1859 9.43371 5.40333 4.97055 3.15301 2.72493 2.6222 2.40915 3.27627 1.72008 1.5218 0.64435 0.538217 0.305552 2.24665
threshold=0.019999999552965168 0.16499999910593036 1.0000000180025095e-35 0.024540800601243976 0.81534090638160717 60.500000000000007 17.500000000000004 92.500000000000014 40.500000000000007 0.25499999523162847 1.3715431690216067 3.0000000000000004 13.500000000000002 68.041667938232436 60.833333969116218 16.500000000000004 15.500000000000002 4.8333332538604745 16.500000000000004
decision_type=8 10 2 8 8 10 2 2 10 10 8 2 2 8 10 2 2 10 2
left_child=-1 2 3 8 -5 7 10 15 11 -3 -4 -2 -13 -14 -10 -6 -15 18 -18
right_child=1 9 6 4 5 -7 -8 -9 14 -11 -12 12 13 16 -16 -17 17 -19 -20
leaf_value=-0.036672038358835535 0 0.039033617755096235 0.039454243264987074 -0.0013557477357653963 0.033747044985997697 0 0.0055949771477947739 0.01856364179299716 -0.0069658829748208218 0.0737490294495107 0.014526653287480455 0.022564191631178853 0 0.0001852943197648039 0.00634851020096902 0.0083851215565076114 0.010048993124347684 0.01930877573873711 0
leaf_weight=611.41818898171186 29.610817544162273 51.27511702477932 128.9266559779644 24.640113845467567 115.40799083188176 25.558942869305611 20.774350769817829 243.83840260654688 19.826416112482548 45.305862128734589 31.615021914243698 38.404099762439728 22.072275653481483 35.635883577167988 14.6169236600399 19.52484105527401 50.839444294571877 21.313347965478897 24.19543869048357
leaf_count=11646 382 495 1217 322 1304 338 217 2823 279 289 322 475 288 455 202 224 649 262 313
internal_value=0.000622367 0.0244823 0.0202534 0.0164487 0.0206885 0.0223611 0.0332699 0.0237508 0.00864093 0.0588631 0.0358186 0.0101694 0.0115882 0.00751689 0 0.0313802 0.00902455 0.0108202 0.00587989
internal_weight=1574.8 963.382 866.801 685.485 428.97 404.33 181.316 378.771 256.515 96.581 160.542 222.071 192.46 154.056 34.4433 134.933 131.984 96.3482 75.0349
internal_count=22502 10856 10072 8316 5011 4689 1756 4351 3305 784 1539 2824 2442 1967 481 1528 1679 1224 962
is_linear=0
shrinkage=0.0352768


Tree=11
num_leaves=33
num_cat=1
split_feature=44 3 3 18 2 7 73 46 1 64 41 7 17 6 52 64 18 59 62 59 49 46 6 6 64 64 41 6 64 64 64 49
split_gain=344.94 220.501 59.1009 27.5115 20.7937 18.5671 13.777 11.0015 17.6402 7.85112 7.78771 15.1223 7.54597 7.3642 5.77637 4.67418 4.63926 4.27095 4.11872 4.06254 2.75565 2.67578 4.56601 7.83601 2.6736 1.86105 1.74587 1.06687 0.750287 6.85755 0.669009 0.665372
threshold=44.500000000000007 1.5000000000000002 2.5000000000000004 1.0000000180025095e-35 0.066815476864576354 57.500000000000007 0 99.500000000000014 14.166666507720949 4235.0000000000009 -865.09997558593739 239.50000000000003 1.5000000000000002 40.500000000000007 21.500000000000004 5445.0000000000009 1.0000000180025095e-35 0.13312236964702609 10992.500000000002 0.076303530484437956 0.086640421301126494 90.500000000000014 40.500000000000007 9.5000000000000018 5985.0000000000009 5285.0000000000009 1067.3999633789065 2.5000000000000004 2685.0000000000005 3425.0000000000005 3075.0000000000005 0.11787864938378335
decision_type=2 8 10 2 8 8 1 2 8 8 10 10 2 10 2 8 2 10 2 10 10 2 10 10 10 8 10 10 10 10 10 8
left_child=4 27 7 21 17 9 19 12 -9 -6 11 13 20 18 -10 -12 31 -1 -8 -7 -3 22 23 -4 -17 -13 -23 -2 -20 -30 -16 -11
right_child=1 2 3 -5 5 6 10 8 14 16 15 25 -14 -15 30 24 -18 -19 28 -21 -22 26 -24 -25 -26 -27 -28 -29 29 -31 -32 -33
leaf_value=0.040056490902584181 0.050651665950453187 0.028475044867558232 -0.017072235898733419 0.015032786694260152 0.015366672923950919 -0.0058974850818568035 0.0013307396948378746 0.012025910882922979 0 -0.012273604481879854 0.038608429728280269 0.0039702502436774409 -0.0043585112694528678 0 0 0 0.0059574996033682527 0.0085283817269578444 0.034856147304238472 0.010255369241979071 0 -0.030613690416013955 -0.025560461713772506 0.0074209692602266375 0.020663061701334591 -0.0083776311493214909 -0.0010176436080471434 0.018041634044208638 0 0.021048732349818116 -0.021467636720416145 0
leaf_weight=69.442511811852455 45.598457027226686 17.098860930651426 30.00212924182415 12.615408319979904 32.666225481778383 38.864750131964684 28.021981153637171 29.663310579955578 26.558488495647907 41.914166893810034 63.389172527939081 24.420890778303146 16.402067389339209 17.90707827731967 11.913427155464886 18.165857680141926 22.648047685623169 21.225280728191137 34.958010036498308 30.084371905773878 17.590183548629284 428.67723350971937 48.878960121423006 19.286105010658503 33.615073762834072 22.789960991591215 12.270979113876818 23.624618101865053 27.319621875882149 211.71429368108511 75.16931626573205 16.952867161482573
leaf_count=672 413 219 525 169 386 466 328 391 438 563 718 286 209 237 192 213 226 205 396 350 250 8062 920 281 396 275 206 247 309 2446 1289 219
internal_value=0.000634152 -0.0151588 -0.0209174 -0.0268164 0.017832 0.0151396 0.0178275 -0.00330135 -0.00876073 0.00086635 0.0197518 0.0164301 0.00910661 0.0191685 -0.0155467 0.0299957 -0.00380259 0.0347463 0.0204672 0 0.0187577 -0.028143 -0.0171946 -0.00511732 0.0150917 0 -0.0301081 0.0429005 0.0218951 0.018923 -0.0197821 -0.00983493
internal_weight=1571.45 815.35 746.126 551.731 756.1 665.432 551.251 194.396 143.305 114.181 482.302 367.132 51.0911 319.921 113.641 115.17 81.5151 90.6678 302.014 68.9491 34.689 539.115 98.1672 49.2882 51.7809 47.2109 440.948 69.2231 273.992 239.034 87.0827 58.867
internal_count=22502 13811 13151 10163 8691 7814 6420 2988 2310 1394 5604 4277 678 3716 1919 1327 1008 877 3479 816 469 9994 1726 806 609 561 8268 660 3151 2755 1481 782
cat_boundaries=0 1
cat_threshold=5
is_linear=0
shrinkage=0.0352768


Tree=12
num_leaves=30
num_cat=1
split_feature=43 43 3 7 64 45 59 2 40 2 3 41 45 64 45 59 49 64 43 73 49 49 53 7 64 49 59 49 25
split_gain=999.564 98.1036 23.9369 26.2489 11.9289 9.81819 11.4032 9.10978 9.56815 8.04815 7.85674 5.27805 8.4924 4.22983 5.43336 5.13372 6.17221 3.5454 6.62262 3.20686 2.45245 2.75323 2.24209 2.18472 1.84816 0.126509 0.0381878 0.0332519 0.0324846
threshold=0.019999999552965168 0.12749999761581424 1.5000000000000002 57.500000000000007 4235.0000000000009 0.073350071907043471 0.043614130467176444 2.8792088031768803 0.71815368533134472 1.3715431690216067 5.5000000000000009 -1140.200012207031 0.015038444194942715 7355.0000000000009 1.0000000180025095e-35 0.043167702853679664 0.14009346067905429 6305.0000000000009 0.25499999523162847 0 0.085188850760459914 0.070751763880252852 0.093637589365243926 231.50000000000003 5225.0000000000009 0.049822695553302772 0.056864377111196525 0.074199199676513686 1.5000000000000002
decision_type=8 10 8 8 8 10 8 8 8 8 10 10 8 8 10 8 10 10 10 1 10 10 8 10 10 8 10 10 10
left_child=-1 2 9 4 22 7 -7 8 -5 24 -8 12 -10 14 26 27 20 18 -3 -6 21 25 -4 -14 -2 -17 -9 -16 -21
right_child=1 17 3 5 19 6 10 13 11 -11 -12 -13 23 -15 15 16 -18 -19 -20 28 -22 -23 -24 -25 -26 -27 -28 -29 -30
leaf_value=-0.036512646752926141 0.040834276198902161 0.038147633363275764 0 0 0.0002769718788902499 0 0.039009761319611674 0 0 0.0077282936785867708 0.0040491500261525971 0.034981172339048371 0.026774569667261199 -0.00034892360129529747 0 0.00040767615336265747 0 0.020466211270520975 0.074138092077433132 -0.017314624112608697 0.024891343246377966 0 0.022233103382986192 0.00095149486051704401 0.021023405550562216 0.01758829589696121 -0.0013155666283263575 0.0010496144166462211 -0.00046494786609443495
leaf_weight=576.88950069248676 78.02934306114912 61.293946586549282 16.540207669138908 20.811877600848675 16.464144811034203 23.926354996860027 68.651084527373314 18.282612547278404 24.163342297077179 36.654473006725311 20.274522215127945 55.428940698504448 38.130048342049122 27.461596734821796 16.985090851783752 18.91790185123682 30.28690629452467 23.572129987180233 40.586297512054443 41.197992987930775 68.710649609565735 26.810478277504444 16.628775358200073 17.720409862697124 68.311216652393341 32.574082665145397 23.601169534027576 33.703489445149899 18.433271240442991
leaf_count=11590 707 588 207 266 219 270 713 236 294 370 236 636 430 344 207 220 360 216 241 548 802 308 204 205 623 380 300 411 245
internal_value=0.000129917 0.0218037 0.0171554 0.0135681 -0.00111866 0.0166251 0.0272664 0.0134762 0.0210438 0.0291289 0.0329866 0.024382 0.0141666 0.00883469 0.0102517 0.0123794 0.0152116 0.0511208 0.0559374 -0.00978181 0.0181317 0.00967467 0.0140762 0.0214222 0.0332585 0.0141718 0 0 -0.0125846
internal_weight=1561.04 984.152 858.7 675.705 109.264 566.441 112.852 453.589 156.255 182.995 88.9256 135.443 80.0138 297.334 269.872 227.989 177.3 125.452 101.88 76.0954 147.013 78.3025 33.169 55.8505 146.341 51.492 41.8838 50.6886 59.6313
internal_count=22376 10786 9741 8041 1423 6618 1219 5399 1831 1700 949 1565 929 3568 3224 2688 2070 1045 829 1012 1710 908 411 635 1330 600 536 618 793
cat_boundaries=0 1
cat_threshold=35
is_linear=0
shrinkage=0.0352768


Tree=13
num_leaves=23
num_cat=1
split_feature=43 43 64 7 43 2 2 73 2 46 53 17 45 64 9 64 59 64 64 64 64 53
split_gain=948.96 89.1871 17.2442 15.7293 15.3233 14.3033 13.0666 8.96147 6.46684 5.50095 6.13004 6.34397 4.11847 5.49078 4.96997 3.83314 3.85562 2.64218 1.62258 1.08458 2.38982 0.34445
threshold=0.019999999552965168 0.044999999925494201 6565.0000000000009 57.500000000000007 0.25499999523162847 0.13341837376356128 3.390499591827393 0 5.6591269969940194 54.500000000000007 0.40289855003356939 1.0000000180025095e-35 1.0000000180025095e-35 7355.0000000000009 16.500000000000004 4235.0000000000009 0.075809825211763396 5125.0000000000009 4075.0000000000005 6265.0000000000009 6905.0000000000009 0.098833266645669951
decision_type=8 10 10 8 10 10 8 1 8 2 8 2 10 8 2 8 10 10 10 10 10 8
left_child=-1 3 4 5 -3 17 9 18 -9 -5 11 -11 -10 14 -14 -7 -17 -2 -8 -13 -21 -16
right_child=1 2 -4 6 -6 15 7 8 12 10 -12 19 13 -15 21 16 -18 -19 -20 20 -22 -23
leaf_value=-0.036419099150163593 0.028309817029536843 0.035253120544703281 0.0094053821849550152 0.0018850155012269819 0.067021132325376473 0.0035356806302253713 -0.0098629396995416254 0 0 0.0047352245520757936 0 0.031888696474537612 0.020973421435975709 0 0 -0.016936556170687244 0 0.0017785406273769849 0.00013608940141412524 0 0.021611481054832321 0.0050039657365236823
leaf_weight=558.30829435586929 20.727182976901531 160.9491229057312 33.729894753545523 28.007805861532688 44.734387695789337 24.747002072632313 18.047779276967049 22.18890168517828 31.376028396189213 30.818021908402443 20.311644680798054 159.19684936106205 184.96706026047468 19.560660481452942 18.127378150820732 35.190937917679548 31.052412856370211 21.958316475152969 30.859927423298359 21.681738018989563 20.76105509698391 18.877467960119247
leaf_count=11590 210 1656 356 293 257 296 214 287 398 330 212 1674 2050 233 209 456 385 220 368 234 235 213
internal_value=0.000176472 0.0208472 0.0398274 0.0145085 0.0439101 0.00223531 0.0168908 0.0112604 0.0133624 0.0230711 0.0248315 0.0264931 0.0153319 0.0169118 0.0184672 -0.00458072 -0.00955702 0.0188267 -0.00122643 0.0290134 0.0135686 0.00185509
internal_weight=1556.18 997.872 239.413 758.458 205.684 133.676 624.782 344.005 295.097 280.777 252.769 232.458 272.909 241.533 221.972 90.9904 66.2434 42.6855 48.9077 201.64 42.4428 37.0048
internal_count=22376 10786 2269 8517 1913 1567 6950 3972 3390 2978 2685 2473 3103 2705 2472 1137 841 430 582 2143 469 422
cat_boundaries=0 1
cat_threshold=5
is_linear=0
shrinkage=0.0352768


Tree=14
num_leaves=30
num_cat=0
split_feature=43 43 18 7 43 64 3 1 9 51 64 9 59 3 64 9 64 64 51 64 51 51 51 64 64 64 9 1 25
split_gain=900.385 78.9565 14.9879 19.6594 14.6686 8.68324 7.85717 7.23428 4.94102 6.23779 4.75817 5.49665 7.1504 5.9227 2.90329 2.76683 2.68701 1.95546 1.79238 1.72916 2.05597 3.66682 3.01044 4.4803 1.52898 1.04016 0.964231 0.363888 0.203313
threshold=0.019999999552965168 0.044999999925494201 1.0000000180025095e-35 61.500000000000007 0.25499999523162847 4285.0000000000009 1.5000000000000002 15.416666507720949 15.500000000000002 0.079042028635740294 8355.0000000000018 14.500000000000002 0.052459580823779113 4.5000000000000009 5165.0000000000009 6.5000000000000009 4975.0000000000009 6285.0000000000009 0.12773956358432773 2645.0000000000005 0.067878887057304396 0.047458173707127578 0.081275403499603285 6165.0000000000009 3425.0000000000005 5405.0000000000009 12.500000000000002 33.833333969116218 -19.499999999999996
decision_type=8 10 2 8 10 8 10 10 2 10 8 2 8 10 10 2 10 10 8 10 10 8 10 10 10 10 2 10 10
left_child=-1 2 3 5 6 -2 -3 8 9 -4 11 15 16 19 -10 -5 24 27 28 -14 21 -21 -22 -24 -13 -15 -17 -8 -7
right_child=1 4 7 10 -6 18 17 -9 14 -11 -12 12 13 25 -16 26 -18 -19 -20 20 22 -23 23 -25 -26 -27 -28 -29 -30
leaf_value=-0.036327433866670797 0.010125434546107447 0.040265166337861938 0.0078439138226127133 0.0093291838167209405 0.05799424663563045 -0.00033587002953859287 0.025596209720404082 0.00042890622535702352 0.020470314193254683 0.040884888053552317 0 0 0.031417988463063505 0.005494787040089405 0 0.031321704981509553 0.0071187469423897726 0.0012189009668241134 0 0.01242157057586085 0.030119357177062024 -0.0020128213333061203 0.014434555101235879 0 -0.010492701310837941 -0.0040742751801750316 0.013609526857425395 0.0044494300493066038 -0.019393267605639447
leaf_weight=540.30172743275762 26.69587080180645 87.822463542222977 22.845454089343548 65.687312193214893 52.188504204154015 17.443408448249102 64.54677514731884 24.797249861061573 23.707900695502758 61.369970761239529 20.079953514039516 17.341287866234779 19.766821689903736 26.673549830913544 25.855879239737988 59.280918464064598 40.151997677981853 21.100118227303028 17.181991934776306 29.912639833986759 23.863573655486107 28.460665605962276 67.300709530711174 23.18437872081995 23.539900422096252 18.59007366746664 56.514400646090508 20.068323906511068 25.838770348578691
leaf_count=11590 323 814 205 757 296 235 670 260 215 547 243 203 209 317 240 647 478 250 219 332 268 318 735 271 281 232 631 239 351
internal_value=0.000202486 0.0199054 0.0139179 0.010859 0.0375305 -0.00333798 0.0303063 0.0242732 0.027581 0.0341833 0.0135004 0.0141868 0.0102307 0.0132892 0.0121897 0.0200535 0 0.0196806 -0.0116217 0.0159641 0.012787 0.0035365 0.0161031 0.00990226 -0.00498915 0 0.0245174 0.022512 -0.0152188
internal_weight=1552.11 1011.81 766.085 607.508 245.726 87.16 193.538 158.576 133.779 84.2154 520.348 500.268 318.786 237.752 49.5638 181.483 81.0332 105.715 60.4642 192.489 172.722 58.3733 114.349 90.4851 40.8812 45.2636 115.795 84.6151 43.2822
internal_count=22376 10786 8517 7050 2269 1128 1973 1467 1207 752 5922 5679 3644 2682 455 2035 962 1159 805 2133 1924 650 1274 1006 484 549 1278 909 586
is_linear=0
shrinkage=0.0352768


Tree=15
num_leaves=33
num_cat=0
split_feature=43 43 2 64 7 46 19 7 55 59 64 6 53 64 41 7 1 40 46 51 51 64 9 49 64 64 64 7 51 51 51 49
split_gain=856.279 69.3161 18.7082 16.1613 20.8246 11.0864 7.1728 7.30355 5.45508 5.07705 5.04579 4.97554 4.92288 4.83153 4.25759 9.21466 4.29543 3.46383 2.60034 4.34573 2.08226 4.07403 2.86757 4.90333 2.72591 1.90896 1.8953 1.5312 0.919251 0.983239 0.432444 0.429135
threshold=0.019999999552965168 0.12749999761581424 0.066815476864576354 2605.0000000000005 70.500000000000014 37.500000000000007 1.5000000000000002 391.50000000000006 0.072954680770635619 0.030418691225349907 4265.0000000000009 46.500000000000007 0.098833266645669951 6145.0000000000009 4522.9333496093759 224.50000000000003 23.416666984558109 8.1176471710205096 84.500000000000014 0.12773956358432773 0.11944991722702981 6185.0000000000009 14.500000000000002 0.085188850760459914 6265.0000000000009 2115.0000000000005 4975.0000000000009 48.500000000000007 0.067878887057304396 0.045603090897202499 0.16549243032932284 0.10333704203367235
decision_type=8 10 8 8 8 2 2 10 8 8 8 8 8 8 8 10 10 8 2 8 10 8 2 8 8 10 8 10 10 8 10 10
left_child=-1 2 8 25 10 -6 7 9 -2 11 12 -7 -5 -3 17 16 20 -11 -12 27 22 30 24 28 -16 -4 -13 -20 29 -24 -22 -25
right_child=1 13 3 4 5 6 -8 -9 -10 14 18 26 -14 -15 15 -17 -18 -19 19 -21 21 -23 23 31 -26 -27 -28 -29 -30 -31 -32 -33
leaf_value=-0.036238353015591439 0.0056595529066285474 0.047947232241973496 0.0093268803564558328 0 -0.006013357798030184 0.015002664730005501 0.030492145855531054 0 0.034518456701740682 0.0032971075332777554 0.0014395284399527364 -0.0086385241723029547 0.021138370782205661 0.018164195208672001 0.034072452178045304 -0.0028563522917664287 0 0.030466410445753225 -0.016449869479018005 0 0.00090722309504010358 -0.0027864954848897815 0.0051824966824613929 0.027730556893779609 0.0048054243348713919 0.037796116239572769 0.0026914868333111448 0 0.0085710814810040607 -0.0043742408611363937 0.017668465797189323 0.005680761880599172
leaf_weight=523.39996784925461 24.062556594610214 105.08117152750492 22.50455242395401 20.636665157973766 21.745784603059292 30.263089306652546 45.989697948098183 34.118000365793705 83.803821548819542 20.684861823916435 26.987791381776333 24.191992998123169 18.562578924000263 31.889643505215645 40.911546431481838 26.325161002576351 20.32569520175457 59.885970033705235 43.71585239470005 25.502273876219988 24.550491377711296 17.597648806869984 24.3161830753088 30.083910427987576 18.992549523711205 40.185406655073166 32.964304946362972 16.857558324933052 31.897012740373611 20.544225625693798 21.812166899442673 23.221627727150917
leaf_count=11602 215 779 239 243 247 338 454 393 752 243 318 289 203 267 424 299 246 637 566 305 263 202 271 332 215 430 391 200 354 231 239 259
internal_value=0.000260742 0.0190001 0.0150553 0.0127382 0.0108379 0.0139187 0.0149883 0.0130832 0.0297009 0.0142398 0 0.00403934 0.00950707 0.0426546 0.0161665 0.0129175 0.0149333 0.0255519 -0.00451892 -0.00786258 0.0161655 0.00618614 0.0186424 0.0127648 0.0277525 0.030728 -0.000145093 -0.013047 0.0042886 0 0.0122195 0.0215067
internal_weight=1553.61 1030.21 893.241 785.375 722.685 570.422 548.676 502.686 107.866 468.568 152.263 87.4194 39.1992 136.971 381.149 300.578 274.253 80.5708 113.063 86.0757 253.927 63.9603 189.967 130.063 59.9041 62.69 57.1563 60.5734 76.7574 44.8604 46.3627 53.3055
internal_count=22446 10844 9798 8831 8162 6327 6080 5626 967 5233 1835 1018 446 1046 4215 3335 3036 880 1389 1071 2790 704 2086 1447 639 669 680 766 856 502 502 591
is_linear=0
shrinkage=0.0352768


Tree=16
num_leaves=30
num_cat=0
split_feature=43 43 45 64 7 40 55 1 57 7 7 57 55 57 53 53 64 1 7 53 64 9 3 1 55 55 7 1 53
split_gain=814.611 61.2618 19.2629 14.7115 9.53854 8.20966 6.32724 6.29474 9.71993 6.29316 5.79733 6.2466 5.77455 4.171 4.07183 4.19839 3.46487 3.33273 3.20531 2.56764 2.14811 2.03977 1.94882 1.59375 1.15028 0.77621 0.246591 0.224683 0.157564
threshold=0.019999999552965168 0.12749999761581424 0.03141447342932225 4095.0000000000005 29.500000000000004 8.1176471710205096 0.081165537238121047 23.166666984558109 0.02730661723762751 84.500000000000014 385.50000000000006 0.054869787767529495 0.014928699005395176 0.121416874229908 0.068278945982456221 0.14608739316463473 6165.0000000000009 5.8333332538604745 133.50000000000003 0.11242977529764177 6305.0000000000009 15.500000000000002 38.500000000000007 20.166666984558109 0.21254921704530719 0.081789594143629088 52.500000000000007 48.166666030883796 0.034632682800292976
decision_type=8 10 8 10 8 8 10 8 8 8 10 10 8 10 8 10 8 10 10 8 10 2 8 10 8 10 10 10 10
left_child=-1 2 7 12 17 -6 20 8 -2 27 11 -10 -4 18 28 19 -3 -5 26 25 21 -7 -23 -8 -17 -16 -13 -9 -11
right_child=1 16 3 4 5 6 23 9 10 14 -12 13 -14 -15 15 24 -18 -19 -20 -21 -22 22 -24 -25 -26 -27 -28 -29 -30
leaf_value=-0.036150068972719725 -0.0042571806147107798 0.044843077457866407 0.0058709176592356182 0.0072915756954089828 0 0.01864165470997509 0.025413577139604116 -0.013041552095575601 0.03191065287066893 0 0 -0.0037341189995810657 0.032187073854351059 0.021834570731013928 0 -0.0060879275156401512 0.017022309164838687 -0.01099817092886095 0.012293255438580892 0.022259801196936678 0 -0.0010467607004150761 0.010270970781900559 0.0043389218240460978 0.0050874542094778126 0.0086187731851876791 0 0 -0.0022816973470403934
leaf_weight=506.47928544133902 21.382349390536547 109.25801341235638 27.51862733066082 18.96037794649601 20.279128186404705 36.85377112776041 128.9660601913929 15.55857962742448 41.32100372761488 26.198005631566048 19.038715794682503 18.150570645928383 138.10457380115986 33.828449487686157 29.316886313259602 18.827723622322083 31.340697154402733 20.400801204144955 29.116472691297531 34.432753816246986 33.823553651571274 20.849750056862831 20.611804597079754 23.248749934136868 18.964921660721302 32.059286788105965 25.485163636505604 14.678702201694248 33.805998936295509
leaf_count=11602 237 786 286 197 227 368 1251 206 442 324 210 214 1359 365 350 229 260 266 305 407 371 211 219 262 228 377 274 206 407
internal_value=0.000302535 0.0182108 0.0144787 0.0194212 0.0139137 0.0161602 0.0178602 0.00815889 0.0131334 0.00323215 0.0161933 0.018511 0.0288404 0.0111664 0.00603321 0.00944205 0.0401918 0 0.00360259 0.0132431 0.00886656 0.0119794 0.00201047 0.0232423 0 0.005108 0 -0.00941574 0
internal_weight=1548.86 1042.38 901.783 489.617 323.994 284.633 264.354 412.166 188.323 223.843 166.94 147.902 165.623 106.581 193.606 133.602 140.599 39.3612 72.7522 95.8089 112.139 78.3153 41.4616 152.215 37.7926 61.3762 43.6357 30.2373 60.004
internal_count=22446 10844 9798 5017 3372 2909 2682 4781 2047 2734 1810 1600 1645 1158 2322 1591 1046 463 793 1134 1169 798 430 1513 457 727 488 412 731
is_linear=0
shrinkage=0.0352768


Tree=17
num_leaves=33
num_cat=0
split_feature=3 44 45 45 44 6 1 18 64 7 7 55 7 64 25 45 9 62 64 62 52 62 59 46 45 59 41 59 62 61 50 64
split_gain=229.813 134.073 75.8047 33.3255 32.3983 21.3892 16.7402 15.2391 12.7961 8.48087 10.1228 8.03861 7.94613 7.51432 6.58404 5.44836 6.52765 8.43726 5.86043 5.20641 4.29799 4.19534 7.79453 4.11898 4.03589 2.72351 2.34629 2.24576 4.36783 1.94236 1.79978 1.76006
threshold=2.5000000000000004 25.500000000000004 0.030151515267789367 0.093178294599056258 1.0000000180025095e-35 1.5000000000000002 16.583333015441898 1.0000000180025095e-35 6065.0000000000009 69.500000000000014 218.50000000000003 0.081275403499603285 31.500000000000004 4335.0000000000009 -1.4999999999999998 0.08842144533991815 12.500000000000002 12292.000000000002 4805.0000000000009 13680.500000000002 130.50000000000003 12570.500000000002 0.13128156214952472 83.500000000000014 0.021858576685190204 0.14377042651176455 1391.600036621094 0.068857759237289443 12535.500000000002 8.5000000000000018 81.500000000000014 5225.0000000000009
decision_type=10 2 10 8 2 8 8 2 10 10 10 8 8 10 10 10 2 2 10 2 2 2 8 2 10 8 10 10 2 2 2 8
left_child=2 9 4 7 11 -4 -6 26 12 23 14 27 -7 -5 -11 16 -14 -18 -17 20 -13 -10 -23 -2 -21 -19 -3 28 -1 -30 -25 -12
right_child=1 3 5 13 6 8 -8 -9 21 10 31 19 15 -15 -16 18 17 25 -20 24 -22 22 -24 30 -26 -27 -28 -29 29 -31 -32 -33
leaf_value=-0.0044744197889617374 0.0097579235959790109 -0.029114809757292508 0.036637630688902599 0.022718381446040468 0.0031195030190931399 0 -0.022028113915652611 0.0040206838220669776 -0.0035925890021694111 0.025062972179501562 0.0058407714212344421 0.010060173833903046 0.029296261166431897 -0.004624597530189724 0.00062568347245932951 0.041781839577196778 0.022728246724111348 -0.001408320093341342 0.009590229677043257 0.0098783085473372351 -0.0054741816912064574 0 0.024437282872087907 0 0.034177892178272537 0.011885879157316225 0 -0.006085261775739868 0.018722399835716746 0 -0.011535414769929137 -0.0052300950366456281
leaf_weight=19.702066883444786 16.644492402672768 424.25793926045299 116.0224759504199 14.846106737852095 37.470711648464203 19.375569719821215 85.423638395965099 10.12912232428789 33.542894925922155 65.544737376272678 33.427279260009527 50.817180164158344 45.008111108094454 20.31540784984827 32.132363177835941 48.346559219062328 37.399746987968683 56.933818202465773 25.960843689739704 58.980425298213959 22.250957183539867 34.800080716609955 22.256290730088949 15.207317966967819 23.584839589893818 19.582822613418102 9.8118796870112401 37.731171078979969 20.779017187654972 19.200370691716671 37.836261410266161 29.715825825929642
leaf_count=232 202 9351 904 202 455 211 1691 144 381 742 387 567 449 302 379 447 393 636 244 669 243 396 246 201 238 205 186 424 235 223 501 360
internal_value=0.000316966 -0.0143094 0.0129177 -0.0249411 0.000767818 0.0224846 -0.013439 -0.0275972 0.016959 0.00727349 0.0117713 0.00828866 0.0211374 0.00458179 0.0186763 0.0229131 0.0165659 0.00960058 0.0332821 0.0131676 0.00354585 0.00349907 0.00983721 -0.00135245 0.0195897 0.000729671 -0.0286708 0 0.00444376 0.0119104 -0.00762501 0
internal_weight=1545.04 709.869 835.17 479.36 375.94 459.229 122.894 444.199 343.207 230.508 160.82 253.046 252.607 35.1615 97.6771 233.232 158.924 113.916 74.3074 155.633 73.0681 90.5993 57.0564 69.6881 82.5653 76.5166 434.07 97.4126 59.6815 39.9794 53.0436 63.1431
internal_count=22446 12957 9489 10185 4977 4512 2146 9681 3608 2772 1868 2831 2585 504 1121 2374 1683 1234 691 1717 810 1023 642 904 907 841 9537 1114 690 458 702 747
is_linear=0
shrinkage=0.0352768


Tree=18
num_leaves=26
num_cat=0
split_feature=43 43 40 7 43 3 9 3 59 46 46 55 57 40 11 55 59 59 7 57 55 3 63 59 14
split_gain=763.903 54.2481 12.1983 12.7166 13.6623 14.3428 8.08588 7.20975 7.13359 5.78037 4.30286 4.01007 6.83917 3.2759 1.95068 1.84068 1.67364 1.93945 1.41465 1.3138 1.31079 2.82171 0.793835 0.555426 0.471799
threshold=0.019999999552965168 0.12749999761581424 0.77350428700447094 57.500000000000007 0.081666667014360442 1.5000000000000002 16.500000000000004 23.000000000000004 0.21076774597167972 99.500000000000014 44.500000000000007 0.01835016813129187 0.024540800601243976 14.392857074737551 1650.0000000000002 0.13652714341878894 0.026432231068611148 0.12539308518171313 174.50000000000003 0.077171217650175108 0.12539308518171313 53.500000000000007 7.5000000000000009 0.083624709397554411 1.0000000180025095e-35
decision_type=8 10 8 10 8 10 2 10 8 2 2 8 8 10 2 10 10 10 10 10 8 10 10 8 2
left_child=-1 2 19 4 -4 6 8 10 9 -6 -5 18 -13 -3 15 -7 -11 -18 -12 -2 21 -9 -8 -16 -14
right_child=1 13 3 7 5 14 22 20 -10 16 11 12 24 -15 23 -17 17 -19 -20 -21 -22 -23 -24 -25 -26
leaf_value=-0.036012839941587757 -0.0074047596078600153 0.042362244163315362 0.034069229432442595 0 0.017938554019841933 -0.012689323843849808 0.0027928471892891076 0 0.024822385315822364 0 0.013024800745764988 0.0018304297937202993 0.021337488208727919 0.016669913776942491 0.0057293831451554183 0 0.0084175809361186297 0 0 0.0015003053253167271 0 0.017091129052084063 -0.0048283602095007764 0 0.034615180265822873
leaf_weight=482.25298366323113 25.325298272073269 110.81011613458395 27.548271894454956 21.676180258393288 72.095310986042023 32.94801189750433 21.735406473278999 16.767929203808308 66.206056617200375 33.747926004230976 23.875394001603127 27.817297957837582 173.16176304221153 35.025721102952957 17.199210278689861 19.644214116036892 97.993544481694698 25.875064142048359 24.152205839753151 24.430245842784643 18.068870596587658 16.045847803354263 29.954832971096039 17.142438281327486 82.710753858089447
leaf_count=11665 310 795 301 215 721 428 244 209 666 389 243 276 1725 269 228 242 1041 270 252 295 228 206 328 220 742
internal_value=0.000546609 0.0173452 0.013818 0.0148076 0.0100442 0.00792831 0.0112139 0.0197767 0.0134537 0.00924611 0.0216808 0.022724 0.024693 0.0376777 -0.00364794 -0.00802537 0.00410454 0.00613231 0.00753301 -0.000733091 0.00350158 0.00792368 0 0 0.0265971
internal_weight=1544.21 1061.96 916.122 866.367 462.09 434.542 347.608 404.276 295.918 229.712 353.394 331.717 283.69 145.836 86.9339 52.5922 157.617 123.869 48.0276 49.7555 50.8826 32.8138 51.6902 34.3416 255.873
internal_count=22508 10843 9779 9174 5078 4777 3659 4096 3087 2421 3453 3238 2743 1064 1118 670 1700 1311 495 605 643 415 572 448 2467
is_linear=0
shrinkage=0.0352768


Tree=19
num_leaves=29
num_cat=0
split_feature=43 43 7 2 40 6 45 2 6 45 1 7 53 53 53 62 53 59 59 59 11 41 59 62 40 2 40 41
split_gain=726.362 48.763 12.0477 12.9836 13.099 10.6681 11.4936 9.42666 6.95447 6.41759 5.8004 5.46548 5.07205 6.47283 3.21116 2.47915 2.20067 2.18828 2.54827 1.79151 1.7269 1.63078 1.56394 1.2957 1.00308 0.986549 0.596349 0.033203
threshold=0.019999999552965168 0.034999999217689044 57.500000000000007 3.390499591827393 0.77350428700447094 1.5000000000000002 0.030457638204097751 0.13341837376356128 8.5000000000000018 0.020942983217537407 9.166666507720949 63.500000000000007 0.076179068535566344 0.056294012814760215 0.40289855003356939 10973.500000000002 0.034632682800292976 0.083045978099107756 0.058608844876289375 0.043167702853679664 1350.0000000000002 inf 0.10615530610084535 13400.500000000002 572.63394165039074 0.26673670113086706 21.042141914367679 676.89999389648449
decision_type=8 10 8 8 8 10 10 10 10 10 10 10 8 10 8 2 10 10 8 8 2 8 10 2 8 10 10 8
left_child=-1 2 7 4 -4 6 -3 27 11 16 12 -7 13 19 15 -6 -5 18 -18 -11 -19 22 26 -14 -17 -13 -9 -2
right_child=1 5 3 9 14 8 -8 21 -10 10 -12 25 23 -15 -16 24 17 20 -20 -21 -22 -23 -24 -25 -26 -27 -28 -29
leaf_value=-0.035928333474975475 0.0020761864476487616 0.01190995014781485 0 0.010199726825402084 0.0039423459224347118 0 0.049003344284383035 -0.015544495623672522 0.030284632378813459 0 0 0.02396296179235231 0.0078928995280074694 -0.005661588208141174 0.0011229503977736694 0.032784415075155157 0 0.011424769032226591 -0.011276358793679423 0.019912755036928489 0 0 0 0.023866481425684816 0.018981402935158237 0.0041231957735980091 0 0.019177747777134043
leaf_weight=466.62171453610063 23.122616089880466 27.854727156460285 27.913636177778244 25.260877750813961 25.435230322182178 31.296902984380722 73.719250597059727 23.498721767216921 81.629096928983927 19.276422277092934 31.373859472572803 30.042602382600307 46.717395827174187 28.3377865254879 22.268268294632435 76.409134738147259 26.579247817397118 20.305927373468876 34.595560759305954 22.438204705715179 34.398879669606686 30.755595032125711 18.633049592375755 75.483730293810368 148.80811873078346 27.972413457930088 16.690003126859665 23.148193918168545
leaf_count=11665 214 251 326 310 249 294 528 298 752 208 371 256 460 284 215 708 329 245 417 223 408 385 226 737 1461 257 210 221
internal_value=0.000554456 0.0166022 0.0118368 0.0138089 0.019607 0.0297699 0.0409134 0.0010983 0.0216231 0.00850743 0.0122927 0.0113385 0.0145634 0.00398561 0.0219568 0.0232348 0.00141587 0 -0.00514031 0.0134117 0.00414236 -0.00450029 -0.00791001 0.0192539 0.024724 0.0174219 -0.0115422 0.0141292
internal_weight=1540.59 1073.97 801.45 665.602 300.834 272.515 101.574 135.848 170.941 364.768 223.627 89.3119 192.254 70.0524 272.921 250.652 141.14 115.88 61.1748 41.7146 54.7048 89.5774 58.8218 122.201 225.217 58.015 40.1887 46.2708
internal_count=22508 10843 8505 6951 2959 2338 779 1554 1559 3992 2283 807 1912 715 2633 2418 1709 1399 746 431 653 1119 734 1197 2169 513 508 435
is_linear=0
shrinkage=0.0352768


Tree=20
num_leaves=29
num_cat=0
split_feature=43 43 40 45 7 1 57 9 57 59 61 61 6 57 57 45 1 7 1 40 61 57 9 1 1 57 57 61
split_gain=691.747 44.8621 10.4902 11.1781 11.1554 9.69507 6.75882 6.16018 5.9686 4.37199 4.18945 3.92577 3.43962 5.42261 4.02704 3.5403 3.04649 3.03576 2.72825 2.55907 1.41261 1.24621 1.19449 1.09534 1.06429 0.331248 8.37457 0.266939
threshold=0.019999999552965168 0.12749999761581424 0.77350428700447094 0.035401003435254104 28.500000000000004 22.166666984558109 0.022599591873586181 14.500000000000002 0.33012820780277258 0.19063283503055575 10.500000000000002 3.5000000000000004 72.500000000000014 0.041841737926006324 0.056294012814760215 1.0000000180025095e-35 35.833333969116218 370.50000000000006 4.4166667461395273 9.761904716491701 3.5000000000000004 0.077171217650175108 14.500000000000002 1.5833333134651186 3.8333333730697636 0.077171217650175108 0.10726270452141763 8.5000000000000018
decision_type=8 10 8 8 8 8 8 2 8 10 2 2 8 10 10 10 10 10 10 10 2 10 2 8 8 10 10 2
left_child=-1 2 21 5 18 6 -4 8 11 12 19 -6 14 22 -7 -15 23 25 -5 -3 -17 -2 -14 -9 -25 -8 -27 -22
right_child=1 10 3 4 7 9 17 16 -10 -11 -12 -13 13 15 -16 20 -18 -19 -20 -21 27 -23 -24 24 -26 26 -28 -29
leaf_value=-0.035844996706479823 -0.0072236904448244954 0.029406288566493719 0 0.010595726182544925 0.0096068436700964596 0 0.024924716963634335 0.027894799687186056 0.0092851052401603709 0.017009059332091719 0.047507880317522955 0.034088501777479484 -0.010840407909767466 0 -0.015567396238858286 0 0 0 -0.0048367975345109367 0.0067808778472052654 0.019550224357807379 0.0014354087552200638 0 0 0.013388830451836489 0 0.021301984058910879 0.0043825267394093752
leaf_weight=451.48528315499425 25.176421545445919 73.00631394982338 18.932383045554161 19.275752641260624 31.22511038929224 19.42042550817132 63.389194574207067 24.895865716040134 49.764279380440712 20.940641794353724 49.868849039077759 105.62330999225378 18.776557803153992 27.129538800567389 26.659799925982952 17.918001834303141 20.419922664761543 20.283173128962517 30.254179012030363 28.758392833173275 30.708275873214006 24.467563614249229 27.106828063726425 24.3565554022789 173.85589428246021 33.648199107497931 42.040634945034981 37.093463484197855
leaf_count=11665 310 510 202 179 298 245 640 192 463 240 331 963 220 339 336 213 246 213 366 223 353 295 324 218 1722 348 427 427
internal_value=0.000577246 0.0159298 0.012706 0.0136072 0.0175525 0.00847244 0.014741 0.0193711 0.0253879 0.00277213 0.034102 0.0298738 0.000385163 0.00344284 -0.00690966 0.00801756 0.0138934 0.0171474 0 0.0247655 0.0115297 -0.000649064 -0.00485685 0.0150697 0.0122922 0.0190313 0.0114373 0.0138096
internal_weight=1536.48 1085 933.362 883.718 479.671 404.047 178.294 430.141 186.613 225.754 151.634 136.848 204.813 158.733 46.0802 112.849 243.528 159.361 49.5299 101.765 85.7197 49.644 45.8834 223.108 198.212 139.078 75.6888 67.8017
internal_count=22508 10843 9779 9174 4647 4527 1830 4102 1724 2697 1064 1261 2457 1876 581 1332 2378 1628 545 733 993 605 544 2132 1940 1415 775 780
is_linear=0
shrinkage=0.0352768


Tree=21
num_leaves=33
num_cat=1
split_feature=3 44 3 44 14 7 62 73 7 46 1 25 62 56 62 63 41 7 9 53 56 3 63 46 55 9 41 25 56 56 46 7
split_gain=177.196 122.081 34.8494 17.3266 12.6314 9.64865 7.76067 7.61722 8.25315 7.34216 11.0041 8.8633 6.83957 4.96478 7.49452 4.26808 4.08032 3.78952 3.75577 6.87505 6.50626 3.73272 3.51418 3.50324 3.48561 3.1537 2.09313 1.94115 1.81207 1.02004 0.779821 0.676295
threshold=2.5000000000000004 42.500000000000007 1.5000000000000002 40.500000000000007 1.0000000180025095e-35 336.50000000000006 12675.500000000002 0 41.500000000000007 96.500000000000014 10.833333492279055 -93.499999999999986 14552.500000000002 14.500000000000002 11345.500000000002 16.500000000000004 1067.3999633789065 104.50000000000001 7.5000000000000009 0.076179068535566344 128.50000000000003 25.000000000000004 4.5000000000000009 57.500000000000007 0.31909090280532842 17.500000000000004 -2245.6999511718745 36.500000000000007 20.500000000000004 99.500000000000014 48.500000000000007 99.500000000000014
decision_type=10 2 8 2 2 10 2 1 8 2 8 10 2 2 2 8 10 10 2 10 2 10 10 2 8 2 10 8 2 2 2 10
left_child=2 6 5 7 15 25 21 28 -9 11 -11 -5 -8 14 -10 16 23 26 -15 20 -20 27 -19 30 -12 -1 -14 -2 -4 -21 -3 -25
right_child=1 4 3 9 -6 -7 12 8 13 10 24 -13 17 18 -16 -17 -18 22 19 29 -22 -23 -24 31 -26 -27 -28 -29 -30 -31 -32 -33
leaf_value=0.025882778894716501 0.027916970564502836 -0.010726526283633509 -0.0098653303490285182 0.01914037913549867 0 0 -0.011382029900234609 -0.00564042045604656 0 0.0076519051863821394 -0.015834596369949123 -0.0066285605871186822 0.0053219311146003312 0 0.02415931587224085 0 0 0 -0.0077581453306977141 0.020987432192721551 0.011750388819559513 0 0.016600158002576675 -0.03118156466566303 0 0.0042992108540146033 -0.0072348615005983809 0.0057349707149227103 0.0007122947639649611 0.0069646328167724389 0 -0.019009634796939578
leaf_weight=207.20105177164078 29.409576237201691 23.146671481430531 20.248911011964083 31.603746674954891 16.3330491296947 31.15402464568615 33.188711654394865 18.596090544015169 20.947640206664801 32.110660582780838 89.398070298135281 18.322476733475924 26.743619788438082 24.501090809702873 97.503102004528046 15.520309437066315 12.861193429678677 22.739719875156879 38.527531377971172 60.393235195428133 36.314702421426773 22.2466043792665 43.032802626490593 252.59189344197512 13.924480888992546 26.672261957079172 29.348222602158785 31.847632851451635 31.761018116027117 56.983423914760351 9.9354701712727529 105.14596259221435
leaf_count=1652 334 506 230 413 243 267 395 239 226 398 1744 226 324 251 1018 344 241 267 415 626 383 287 472 6294 228 231 372 363 352 587 200 2355
internal_value=0.000196941 -0.0132007 0.0109135 0.00576537 -0.0243049 0.0216493 0.00658216 0.00989206 0.0116004 -0.00257597 -0.00731662 0.00738834 0.00086907 0.0133486 0.0201855 -0.0255086 -0.0262393 0.00552102 0.00871518 0.0104538 0.000112602 0.0151458 0.0110799 -0.0269036 -0.01333 0.0240961 0 0.0194707 -0.00118569 0.0157261 -0.00760528 -0.0282165
internal_weight=1530.25 674.091 856.164 591.136 435.535 265.027 238.557 405.777 353.767 185.359 135.433 49.9262 155.053 335.171 118.451 419.202 403.681 121.864 216.72 192.219 74.8422 83.5038 65.7725 390.82 103.323 233.873 56.0918 61.2572 52.0099 117.377 33.0821 357.738
internal_count=22483 12997 9486 7336 10183 2150 2814 4327 3745 3009 2370 639 1830 3506 1244 9940 9596 1435 2262 2011 798 984 739 9355 1972 1883 696 697 582 1213 706 8649
cat_boundaries=0 1
cat_threshold=5
is_linear=0
shrinkage=0.0352768


Tree=22
num_leaves=32
num_cat=0
split_feature=43 43 61 2 64 2 7 41 61 7 43 7 6 7 41 63 64 59 59 64 7 3 45 64 46 64 1 55 61 64 45
split_gain=631.327 40.6225 15.603 11.766 12.5656 10.3322 9.51912 7.51756 6.66303 10.5299 6.3676 7.19036 5.11139 6.02602 4.76181 4.36451 3.94666 4.55528 3.46157 3.33474 4.19629 2.99834 2.9788 2.9421 2.35059 1.80195 1.53451 0.589675 0.490428 0.186263 0.64457
threshold=0.019999999552965168 0.034999999217689044 8.5000000000000018 3.390499591827393 2605.0000000000005 0.066815476864576354 50.500000000000007 -952.04998779296864 8.5000000000000018 210.50000000000003 0.24499999731779101 126.50000000000001 2.5000000000000004 63.500000000000007 -104.90000152587889 12.500000000000002 4235.0000000000009 0.075809825211763396 0.041960094124078758 3425.0000000000005 73.500000000000014 53.500000000000007 0.04928152263164521 3425.0000000000005 79.500000000000014 2115.0000000000005 5.8333332538604745 0.10622234642505647 10.500000000000002 7425.0000000000009 1.0000000180025095e-35
decision_type=8 10 2 10 8 8 8 10 2 10 10 10 10 10 10 8 8 10 10 10 10 10 10 10 2 10 8 8 2 8 10
left_child=-1 3 12 4 25 14 16 8 9 26 11 -4 22 -14 27 24 -7 -18 23 -20 28 -5 -3 -10 -9 -2 -8 -6 -21 30 -28
right_child=1 2 10 21 5 6 7 15 18 -11 -12 -13 13 -15 -16 -17 17 -19 19 20 -22 -23 -24 -25 -26 -27 29 -29 -30 -31 -32
leaf_value=-0.035878860062998993 0.0072667319679825416 0.0062967903269718125 0.033642255232725432 -0.012444674580395288 0.0096346613194679635 0.0071338540393127989 0 0.0015541623419478398 0.00096856950373548645 -0.0057212248345611975 0.056538629560763068 0.0059010453745512205 -0.0017813264753778005 0.014926083162949069 0.003375425532678816 0 -0.017439203807289291 0 -0.0024208703020912833 0 0.021381125697556194 0.00035346650947264466 0.030946311161794669 -0.010703802090783081 0.023528590312391524 0.034421376178824022 0 0.032767397777827389 0.0040583176534460539 0.0010050527134152401 0.016305523672469072
leaf_weight=428.00162265449762 21.903201945126057 28.682255029678345 73.13421256095171 25.733528073877096 27.126916505396366 19.21359983086586 20.956932418048382 22.017342336475849 19.224923379719257 31.720491081476212 29.339590653777122 31.228194050490856 32.679777015000582 44.177796490490437 32.145009092986584 21.464751243591309 29.095007367432117 30.127185370773077 27.404541291296482 19.943932726979256 21.226650349795818 28.298028647899628 41.620551839470863 45.436523891985416 80.255124129354954 37.973315812647343 18.657464660704136 40.708710379898548 34.492104887962341 22.932992413640022 141.49050417542458
leaf_count=11650 215 258 654 326 225 210 199 214 205 338 141 273 309 400 262 210 364 353 277 208 215 375 305 495 798 361 224 331 358 262 1468
internal_value=0.000196085 0.0144253 0.0262563 0.0101036 0.011277 0.00955676 0.00737813 0.00914457 0.00616776 0.00996366 0.0359323 0.027089 0.0158823 0.00641201 0.0206963 0.0173186 -0.00273494 -0.00830697 0 0.00463767 0.00887713 -0.00384419 0.023552 -0.00541352 0.0202922 0.027637 0.0131092 0.0264068 0.000604474 0.0141892 0.0151899
internal_weight=1528.41 1100.41 280.862 819.549 765.517 705.641 605.66 527.224 403.487 235.758 133.702 104.362 147.16 76.8576 99.9806 123.737 78.4358 59.2222 167.729 103.067 75.6627 54.0316 70.3028 64.6614 102.272 59.8765 204.038 67.8356 54.436 183.081 160.148
internal_count=22483 10833 2340 8493 7792 7216 6398 5471 4249 2491 1068 927 1272 709 818 1222 927 717 1758 1058 781 701 563 700 1012 576 2153 556 566 1954 1692
is_linear=0
shrinkage=0.0352768


Tree=23
num_leaves=30
num_cat=2
split_feature=43 43 2 7 73 45 7 2 73 2 7 55 25 9 57 0 57 55 41 43 40 6 45 57 45 57 41 45 40
split_gain=603.044 37.198 9.92167 10.2456 10.6231 8.83172 6.95379 7.6915 6.39473 6.17014 5.99037 5.61568 5.34759 5.03626 4.85582 4.80742 4.67842 3.86716 3.29554 3.1034 2.98034 2.27697 1.65877 1.59871 1.51611 2.00804 0.586814 0.539456 0.505391
threshold=0.019999999552965168 0.12749999761581424 0.066815476864576354 73.500000000000014 0 0.073350071907043471 398.50000000000006 3.390499591827393 1 0.17659736424684527 224.50000000000003 0.081275403499603285 36.500000000000007 14.500000000000002 0.078501403331756606 2.5000000000000004 0.059017028659582145 0.08907500654459001 -104.90000152587889 0.25499999523162847 57.178571701049812 85.000000000000014 0.059850744903087623 0.093121796846389784 1.0000000180025095e-35 0.04377280920743943 4522.9333496093759 0.031088917516171936 10.025000095367433
decision_type=8 10 8 8 1 10 8 10 1 8 10 8 8 2 10 2 8 10 10 10 8 8 8 8 10 8 8 10 10
left_child=-1 2 11 4 14 6 7 9 21 -5 13 -2 26 -7 16 -16 -4 -14 -13 28 -17 -8 24 -10 -23 -26 -11 -6 -3
right_child=1 19 3 5 27 10 8 -9 23 12 -12 18 17 -15 15 20 -18 -19 -20 -21 -22 22 -24 -25 25 -27 -28 -29 -30
leaf_value=-0.035803030864564142 0.0025393083467736954 0.024451401084804609 0 0 0.0016928214006156242 0.034768817008852627 0 0 0 0.030097774083781365 0 0.032397922181585145 0 0.01266523172639521 -0.0074340705258620528 0 -0.018110825936425753 0.015535793033488215 0.0082006955666891392 0.040943928701576912 0.016832267299970644 0 0 -0.0094026616294527708 0 0.013450759955922344 0.011789797484716426 0.023846218553249941 0.0056057122668395415
leaf_weight=414.03391922265291 31.310160979628563 70.911708742380142 26.476854275912046 34.070293121039867 18.232946388423443 44.59094674885273 25.159771844744682 30.868387274444103 34.852642044425011 59.139376163482666 24.843881793320179 57.939932532608509 35.248448252677917 69.08529245108366 27.446509558707476 17.787399854511023 38.022806171327829 29.071405403316021 31.385032542049885 58.563152581453323 24.555470656603575 26.739768050611019 27.741513475775719 34.120382085442543 24.608933359384537 114.97993393242359 43.551501214504242 22.004463285207748 26.033788800239563
leaf_count=11650 259 546 317 317 223 395 275 383 387 569 239 458 381 643 330 206 443 303 251 290 265 324 269 385 265 1215 434 241 220
internal_value=0.000242168 0.0138933 0.0109758 0.0092323 0.000749429 0.0112597 0.00856502 0.0133708 0.00411177 0.0158875 0.0199288 0.0212793 0.0186461 0.0233352 -0.00351286 0.00109687 -0.0107603 0.00678133 0.0260292 0.0302462 0.00969354 0.00708271 0.00872011 -0.00381088 0.0100282 0.0115093 0.0243021 0.0145753 0.0211315
internal_weight=1523.38 1109.34 953.834 833.199 174.526 658.672 520.152 231.949 288.203 201.081 138.52 120.635 167.011 113.676 134.289 69.7894 64.4997 64.3199 89.325 155.509 42.3429 219.23 194.07 68.973 166.329 139.589 102.691 40.2374 96.9455
internal_count=22483 10833 9777 8809 2025 6784 5507 2387 3120 2004 1277 968 1687 1038 1561 801 760 684 709 1056 471 2348 2073 772 1804 1480 1003 464 766
cat_boundaries=0 1 2
cat_threshold=28 48
is_linear=0
shrinkage=0.0352768


Tree=24
num_leaves=33
num_cat=0
split_feature=43 43 61 9 7 40 53 7 40 45 57 45 7 2 25 53 57 53 53 7 45 61 3 25 57 57 61 7 7 51 57 51
split_gain=569.062 30.9405 14.487 13.5071 8.16089 8.27586 4.64374 4.22491 4.14377 3.88233 4.22667 3.65667 5.42465 3.4505 3.44821 3.22615 3.65002 3.49508 3.47345 2.87402 5.50995 3.53117 2.86578 2.70111 2.31467 1.73815 1.6631 1.39587 1.14396 1.1119 1.10585 0.581941
threshold=0.019999999552965168 0.044999999925494201 8.5000000000000018 13.500000000000002 57.500000000000007 0.69965034723281871 0.51470589637756359 126.50000000000001 -0.8284313678741454 0.11055555567145349 0.22276159375905993 1.0000000180025095e-35 289.00000000000006 0.60129451751708995 -2.4999999999999996 0.087167583405971541 0.095389749854803099 0.14330357313156131 0.056294012814760215 35.500000000000007 0.033520599827170379 8.5000000000000018 2.5000000000000004 1.0000000180025095e-35 0.16604010015726092 0.08981561660766603 11.500000000000002 28.500000000000004 127.50000000000001 0.10544848069548608 0.14377042651176455 0.07325202971696855
decision_type=8 10 2 2 8 10 8 10 10 10 8 8 10 8 10 8 10 10 10 8 10 2 10 10 8 8 2 10 10 8 8 10
left_child=-1 3 9 6 14 8 19 -4 11 10 23 31 15 28 22 18 17 -17 26 -2 21 24 -5 29 -21 -20 -13 -16 -7 -3 -23 -6
right_child=1 2 7 4 5 13 -8 -9 -10 -11 -12 12 -14 -15 27 16 -18 -19 25 20 -22 30 -24 -25 -26 -27 -28 -29 -30 -31 -32 -33
leaf_value=-0.035549400284594558 0.0015870366190477063 0.020055723069459241 0.037673086849392856 0.011010173786473518 0 0.007207442199604468 0 0.012716233925256471 -0.0059494521188980911 0.027803582913183796 0 0.0129923776616916 -0.0036434052777884044 0.00085719540335861967 -0.016798847678586044 0.021324207904246804 0.0010067333166230666 0.0011021992035076939 -0.0069229618980286975 0.020302923026515599 0.02523793691813208 -0.0037227865853761517 -0.0036267632416609602 0 0.00061707103877625224 0.0029126862378872349 0 0 0.030083817304440246 0.0012024575591448186 0.0066055048023792974 -0.005623559550674233
leaf_weight=398.81700679659843 31.673337880522013 44.21899601072073 101.88938771188259 23.287077195942402 17.792862504720688 27.355730794370174 22.420566193759441 35.090575166046619 24.962571337819099 27.018943458795547 29.334603358060122 44.120663911104202 29.488045759499073 26.228346697986126 19.95150176435709 73.625074990093708 44.873612694442272 30.104270868003368 34.997815042734146 43.551826111972332 118.73719325661659 19.80778731405735 23.504693355411291 23.402575079351664 27.302135832607746 32.861609250307083 21.661035679280758 19.333903685212135 33.214282482862473 22.996310252696276 20.165960855782032 21.651362985372543
leaf_count=11600 355 401 771 224 213 235 218 285 291 193 233 466 306 280 245 732 448 298 360 460 1048 206 317 207 293 331 230 207 285 201 213 260
internal_value=0.000329211 0.0133419 0.0236886 0.00956 0.00586516 0.00780001 0.0160694 0.0327571 0.00492622 0.0137242 0.00870025 0.00613394 0.0075157 0.0180321 -0.00293519 0.00918455 0.013167 0.0169541 0.00353405 0.0173742 0.0189146 0.0103475 0.00128891 0.0124448 0.0149391 -0.000386166 0.00930467 -0.0107458 0.0228873 0.0159111 0 -0.00138032
internal_weight=1515.44 1116.62 283.951 832.673 549.014 462.937 283.659 136.98 376.139 146.971 119.952 351.176 311.732 86.7984 86.0772 282.244 148.603 103.729 133.641 261.238 229.565 110.828 46.7918 90.6179 70.854 67.8594 65.7817 39.2854 60.57 67.2153 39.9737 39.4442
internal_count=22412 10812 2291 8521 5728 4735 2793 1056 3935 1235 1042 3644 3171 800 993 2865 1478 1030 1387 2575 2220 1172 541 809 753 691 696 452 520 602 419 473
is_linear=0
shrinkage=0.0352768


Tree=25
num_leaves=28
num_cat=1
split_feature=43 43 63 7 45 62 6 73 51 43 63 62 41 3 6 51 6 51 61 62 7 51 62 51 7 62 62
split_gain=543.359 28.2844 16.9199 8.95171 9.24557 6.79516 6.05924 5.635 5.56283 4.80039 4.08347 3.92179 3.72281 6.73199 3.70721 3.69996 6.70735 3.32354 3.53922 3.0384 2.96494 2.54962 2.21185 1.44949 2.86102 1.11105 0.845172
threshold=0.019999999552965168 0.072037037461996092 6.5000000000000009 31.500000000000004 0.032876959070563323 20160.500000000004 1.5000000000000002 0 0.14530791342258456 0.24499999731779101 11.500000000000002 10937.500000000002 -828.29998779296864 3.5000000000000004 6.5000000000000009 0.11343861743807794 3.5000000000000004 0.17871660739183429 7.5000000000000009 20515.000000000004 188.50000000000003 0.12773956358432773 13713.500000000002 0.13565375655889514 364.50000000000006 12261.500000000002 14076.500000000002
decision_type=8 10 8 8 10 2 10 1 8 10 8 2 10 10 8 8 10 10 2 2 10 8 2 8 8 2 2
left_child=-1 3 15 6 7 8 -2 10 11 20 17 -6 13 -13 -9 16 -3 18 -5 -7 -4 -8 -20 24 -12 -14 -16
right_child=1 2 9 4 5 19 21 14 -10 -11 23 12 25 -15 26 -17 -18 -19 22 -21 -22 -23 -24 -25 -26 -27 -28
leaf_value=-0.035469787091323271 0.013822631438687621 0.024734468895828258 0.026446569958765355 0.016180924074953567 0 -0.0047063776065575285 -0.01153614636495052 0.0063847151406823737 0.026408195092421826 0.045842812670547732 -0.0096797839137052061 0.013037921075135156 0.034058036034325827 -0.00088671468249528168 -0.013950826385143989 0 0 0 -8.4605008023475297e-05 0.0084500992886577947 0.0038494090505864068 0 0.0093373919000622682 0.0073057533878546979 0.003376441386530107 0.01184217144382135 0
leaf_weight=385.85062669217587 19.50568350404501 26.907893046736717 94.666405789554119 123.17803527414799 23.394325628876686 25.001094333827496 43.101721189916134 17.884526208043098 82.508128747344017 42.096406310796738 31.543786063790321 141.98003223538399 23.791441380977631 36.442780449986458 23.069530457258224 31.250271089375019 26.743377991020679 27.337071374058723 35.664318397641182 43.364902704954147 25.427170589566231 20.412825666368008 36.133765257894993 27.335073061287403 29.67898740619421 46.219560742378235 20.828056212514639
leaf_count=11600 153 207 789 1331 222 233 575 179 730 193 332 1283 216 390 276 257 242 288 387 399 207 249 383 289 335 422 245
internal_value=0.000355924 0.0128364 0.0237096 0.00953519 0.0106913 0.0145032 0 0.0059062 0.0165365 0.0306761 0.00779787 0.0127253 0.0140105 0.0094982 -0.00230164 0.00813272 0.0134962 0.0106088 0.0121993 0.00178428 0.0230147 -0.00675761 0.00311573 0 -0.00146119 0.0225947 -0.0093657
internal_weight=1511.32 1125.47 247.092 878.376 795.355 422.702 83.0202 372.653 354.336 162.19 310.871 271.828 248.434 178.423 61.7821 84.9015 53.6513 222.313 194.976 68.366 120.094 63.5145 71.7981 88.5578 61.2228 70.011 43.8976
internal_count=22412 10812 1895 8917 7940 3895 977 4045 3263 1189 3345 2533 2311 1673 700 706 449 2389 2101 632 996 824 770 956 667 638 521
cat_boundaries=0 1
cat_threshold=50
is_linear=0
shrinkage=0.0352768


Tree=26
num_leaves=33
num_cat=1
split_feature=43 43 64 9 50 63 62 63 1 59 50 2 51 51 57 51 64 64 59 51 62 12 57 73 62 51 51 59 59 59 59 59
split_gain=518.743 26.2631 10.3307 8.92696 6.67584 6.19809 6.68951 5.66112 4.56552 4.45633 4.21991 5.15165 3.60271 3.48102 4.16513 4.5098 3.25081 4.76748 4.67403 2.93503 2.77097 2.50639 3.30268 2.37244 2.59649 1.8254 1.7529 1.6746 2.67275 1.4594 1.40093 1.54556
threshold=0.019999999552965168 0.16499999910593036 3175.0000000000005 15.500000000000002 150.50000000000003 11.500000000000002 11211.500000000002 5.5000000000000009 1.8333333134651186 0.093121796846389784 37.500000000000007 0.60129451751708995 0.15957126021385196 0.098126750439405455 0.11327044293284418 0.076230831444263472 6265.0000000000009 3985.0000000000005 0.074914965778589263 0.12074751034379007 13570.500000000002 1.0000000180025095e-35 0.077968131750822081 0 13906.500000000002 0.11484831199049951 0.1311987638473511 0.093121796846389784 0.11242977529764177 0.071662001311779036 0.055749805644154556 0.14590936154127124
decision_type=8 10 8 2 2 8 2 8 8 8 2 8 10 10 8 8 10 10 10 10 2 2 10 1 2 10 10 8 10 10 8 10
left_child=-1 2 21 4 8 6 -6 -3 -4 29 11 -10 -13 14 23 -16 17 -15 19 -19 -11 22 -2 27 -25 -23 -18 -5 -29 -8 -12 -32
right_child=1 7 3 13 5 -7 9 -9 10 20 30 12 -14 16 15 -17 26 18 -20 -21 -22 25 -24 24 -26 -27 -28 28 -30 -31 31 -33
leaf_value=-0.035390735484920839 0.018323722761550965 0.0085613625471121536 0.019654944631675445 0.003267954356047288 0 0 0.013715862767589012 0.03307627356728586 0 0.0055313130914883902 -0.0083236351624780651 0.02043867917795297 0 -0.0074966502005909064 0 0.027024267283612749 0 0 0 0.021861644117171987 0.030932143062125154 0.011344687618313627 0.0014482549907663118 0.016464893083168879 0 0.038260222727631507 -0.014774103627532845 -0.013103429152261111 0 0 0.0044263865531778057 -0.0046496296125215705
leaf_weight=373.30209412612021 52.151328079402447 36.066876739263535 28.487120069563389 75.391219355165958 27.730226669460535 21.977948758751154 59.651989802718163 93.840618275105953 34.428080908954144 22.777141526341438 21.045412085950375 40.51057305559516 19.373295702040195 26.673700362443924 22.330809332430363 21.740689665079117 23.947030995041132 20.142078384757042 45.003339897841215 26.750311862677336 76.478556632995605 30.820175282657146 46.889164000749588 27.782757498323917 19.457047060132027 26.616508767008781 20.353760313242674 22.722310841083527 28.769218493252993 25.198528964072466 65.613375078886747 23.255425959825516
leaf_count=11600 522 256 208 802 278 218 615 536 336 222 224 436 201 266 235 223 264 205 442 276 727 261 470 284 203 223 214 234 294 245 660 232
internal_value=0.000372398 0.0123437 0.0101228 0.00822895 0.0116352 0.0162525 0.0180781 0.0277176 0.00623879 0.0204774 0.00339208 0.00882176 0.0148471 0.00363493 0.00651251 0.0165213 0 0.00277419 0.00734037 0.0147063 0.0268311 0.0190986 0.0119937 0.00292121 0.00855461 0.0276322 -0.0080274 0 -0.00472867 0.010687 -0.000227141 0.000507863
internal_weight=1507.28 1133.98 1004.07 847.592 466.528 233.814 211.836 129.907 232.713 184.106 204.226 94.3119 59.8839 381.064 218.194 44.0715 162.87 118.569 91.8957 46.8924 99.2557 156.477 99.0405 174.123 47.2398 57.4367 44.3008 126.883 51.4915 84.8505 109.914 88.8688
internal_count=22412 10812 10020 8544 4602 2305 2087 792 2297 1809 2089 973 637 3942 2275 458 1667 1189 923 481 949 1476 992 1817 487 484 478 1330 528 860 1116 892
cat_boundaries=0 1
cat_threshold=22
is_linear=0
shrinkage=0.0352768


Tree=27
num_leaves=31
num_cat=0
split_feature=43 43 64 53 62 25 9 2 45 64 2 55 53 64 57 57 57 45 17 41 63 64 45 64 55 62 2 53 45 55
split_gain=504.08 30.0011 11.9502 7.84606 11.2808 7.96595 7.23018 9.89869 6.61239 6.7335 6.31014 5.54445 10.2635 6.09613 4.84025 4.55191 4.28224 6.01222 3.47715 2.95182 2.90124 2.68266 2.6638 2.63942 2.43157 2.42646 2.72975 1.33034 0.773554 0.742626
threshold=0.019999999552965168 0.24499999731779101 5225.0000000000009 0.087167583405971541 10973.500000000002 -1.4999999999999998 13.500000000000002 0.083390023559331908 0.040202019736170776 4395.0000000000009 2.8792088031768803 0.081275403499603285 0.1063164919614792 5865.0000000000009 0.066890381276607527 0.098422754555940642 0.25198413431644445 0.042705167084932334 1.5000000000000002 342.00000000000006 12.500000000000002 2645.0000000000005 0.019803921692073349 2835.0000000000005 0.14330357313156131 15110.500000000002 0.12508503347635272 0.056777885183691985 0.039736840873956687 0.045715779066085822
decision_type=8 10 8 8 2 8 2 8 8 10 10 8 10 8 10 10 8 10 2 10 10 10 10 10 10 2 10 10 10 10
left_child=-1 2 3 5 -5 -2 7 -4 9 23 19 14 13 -13 27 28 17 22 20 21 -10 -6 -9 -7 -18 26 -14 -8 -16 -17
right_child=1 -3 6 4 10 8 11 16 18 -11 -12 12 25 -15 15 29 24 -19 -20 -21 -22 -23 -24 -25 -26 -27 -28 -29 -30 -31
leaf_value=-0.035312492707543344 0.02272620325993821 0.036027548650929685 0.030512605359488808 0 0.031114182203885937 0 0 0.011129805624012038 0.020318117729979986 0.0098498529220178398 0 0 -0.011456357394049307 0.020230392937776797 0 0 0.0043171130574574295 0.020563817351680353 0 0.039123260402890311 0 0.015254322668280347 -0.0025429889081581588 -0.012479545292002136 -0.0098168897749119095 0.0057481590985299083 0 -0.016364299833208876 0.015047133953996152 -0.0080018566474062778
leaf_weight=361.15707893483341 38.319855600595474 64.051273435354233 30.06441193073988 34.017818093299866 42.355248384177685 22.705643333494663 25.942074220627546 20.967609297484159 42.73478701338172 33.490222837775946 22.956487033516169 27.687813851982355 37.704715698957443 65.107936605811119 19.445270709693432 19.075903173536062 30.903687737882137 42.687727198004723 22.978609126061201 26.241751663386822 23.504380859434605 214.53964589163661 36.903313178569078 48.371293060481548 20.819209598004818 26.533346299082041 25.736299145966768 26.699621915817261 22.708308026194572 23.951433219015598
leaf_count=11597 364 306 230 316 364 234 286 236 386 354 266 275 352 674 223 209 318 396 210 221 210 1960 375 523 209 263 272 290 225 247
internal_value=0.000686287 0.012297 0.010635 0.0143117 0.0181031 0.00798151 0.00610976 0.0118526 0.00399944 -0.000927833 0.0202233 0.00232719 0.0065099 0.0146129 -0.00229759 0.00165557 0.00664542 0.0108201 0.011017 0.0216577 0.0149296 0.018806 0.000620395 -0.00804459 0 -0.000672579 -0.00552982 -0.0107485 0.0104788 -0.00427396
internal_weight=1500.36 1139.21 1075.15 572.216 340.111 232.105 502.939 182.346 193.785 104.567 306.093 320.593 182.77 92.7958 137.823 85.1809 152.282 100.559 89.2178 283.137 66.2392 256.895 57.8709 71.0769 51.7229 89.9744 63.441 52.6417 42.1536 43.0273
internal_count=22391 10794 10488 5408 3127 2281 5080 1764 1917 1111 2811 3316 1836 949 1480 904 1534 1007 806 2545 596 2324 611 757 527 887 624 576 448 456
is_linear=0
shrinkage=0.0352768


Tree=28
num_leaves=33
num_cat=0
split_feature=3 44 45 45 18 44 2 6 59 64 64 64 40 63 9 11 53 1 51 53 53 62 45 62 40 46 53 52 62 55 64 51
split_gain=120.021 93.5319 36.5569 25.4209 13.5188 11.9008 12.0609 11.7527 12.4615 11.1307 6.59175 6.46889 6.09325 5.32546 4.36634 6.2007 3.62195 5.40222 3.49081 3.22155 3.10832 3.06669 2.9015 2.74329 4.57225 2.60012 2.05479 1.9613 3.10827 1.59733 1.44642 1.29391
threshold=2.5000000000000004 25.500000000000004 0.021858576685190204 0.093178294599056258 1.0000000180025095e-35 1.0000000180025095e-35 0.93434342741966259 1.5000000000000002 0.058017766103148467 5225.0000000000009 4125.0000000000009 6445.0000000000009 83.375000000000014 8.5000000000000018 14.500000000000002 1750.0000000000002 0.078501403331756606 34.166666030883796 0.13240163773298266 0.10822072252631189 0.060708437114954002 15473.500000000002 0.041885966435074813 12225.500000000002 191.11607360839847 93.500000000000014 0.056777885183691985 84.500000000000014 13509.500000000002 0.082606717944145217 7005.0000000000009 0.082637786865234389
decision_type=10 2 10 8 2 2 8 8 8 8 10 10 10 10 2 2 8 8 10 10 10 2 10 2 8 2 10 2 2 8 10 10
left_child=2 9 5 4 12 14 -7 21 18 13 -5 16 -3 -2 15 -1 17 -10 26 -15 -19 -4 -13 -11 -25 -18 -9 29 -29 -16 -24 -28
right_child=1 3 7 10 -6 6 -8 8 11 23 -12 22 -14 19 27 -17 25 20 -20 -21 -22 -23 30 24 -26 -27 31 28 -30 -31 -32 -33
leaf_value=0 0.029295202343837125 -0.027264527927286803 0.01666034559937209 0.021643152353668378 0.0045271926649146556 0.0038624203455970519 -0.020754650793692972 0 -0.0029451372184844098 0.0054899455003064044 -0.0047191553220944753 -0.0066554473120119867 0 0.00011155010456255059 0 0.02183595709108261 0.026293203800700406 0.022366062016478547 0.01106265147863706 0.015076701617098896 0 0.036167447770662706 0 -0.016048983565469219 0 0.012681821822202758 -0.013765561958288413 -0.012771963027272621 0 0.0084335857124486959 0.012944816024652778 0
leaf_weight=50.024651996791363 21.904007043689489 320.53593100607395 112.67380551621318 13.53183983825147 9.653989911079405 25.823532998561859 59.71132729575038 39.40549355186522 27.67634429037571 28.946275494992733 19.618918934836984 19.977156020700932 8.1926881708204728 67.959290804341435 27.110826499760151 28.423096992075443 77.489072345197201 21.552491975948215 22.3228112552315 37.09205286949873 22.922787792980671 38.625066298991442 19.921654378995299 28.709795922040939 58.391175802797079 131.964828139171 24.151585763320327 30.780497178435326 26.707399025559425 33.350090026855469 22.389036659151316 19.019714802503586
leaf_count=520 236 9406 776 183 147 321 1475 437 258 348 308 247 115 754 313 286 678 221 228 396 241 268 198 365 668 1295 262 342 294 363 236 206
internal_value=0.000697975 -0.0111331 0.0091053 -0.0222499 -0.0251811 -0.000930907 -0.0119737 0.0140187 0.0104274 0.00540163 0.00354576 0.0136427 -0.0264999 0.0126041 0.00334559 0.00965673 0.015962 0.00561171 0 0.00697595 0.0135262 0.0232816 0.000806676 -0.00150937 -0.00544666 0.0187317 -0.00363194 0 -0.00538991 0.00319995 0.00750161 -0.0088666
internal_weight=1496.56 614.536 882.023 371.533 338.383 281.931 85.5349 600.092 448.793 243.003 33.1508 343.893 328.729 126.955 196.397 78.4477 281.606 72.1516 104.9 105.051 44.4753 151.299 62.2878 116.047 87.101 209.454 82.5768 117.949 57.4879 60.4609 42.3107 43.1713
internal_count=22391 12926 9465 10159 9668 3914 1796 5551 4507 2767 491 3374 9521 1386 2118 806 2693 720 1133 1150 462 1044 681 1381 1033 1973 905 1312 636 676 434 468
is_linear=0
shrinkage=0.0352768


Tree=29
num_leaves=33
num_cat=3
split_feature=43 43 43 73 59 3 7 19 41 59 62 50 62 63 7 62 62 59 2 2 50 50 7 73 62 3 63 3 1 73 62 62
split_gain=468.299 27.3123 11.4565 10.7741 7.24359 11.2905 6.9752 8.15836 7.11513 6.3024 4.85978 4.81159 7.37278 5.1183 4.07444 3.17144 5.05856 1.672 2.60924 1.61112 1.47151 2.25166 1.62336 1.29115 1.26136 0.860681 0.847116 0.419957 0.374712 0.143738 0.682879 4.3663
threshold=0.019999999552965168 0.24499999731779101 0.21240601688623431 0 0.025158228352665905 1.5000000000000002 26.500000000000004 1.0000000180025095e-35 -1.5500000119209287 0.030418691225349907 10992.500000000002 6.5000000000000009 15328.500000000002 10.500000000000002 61.500000000000007 12634.500000000002 14076.500000000002 0.14330357313156131 0.059041393920779235 0.29253812134265905 24.500000000000004 159.50000000000003 644.50000000000011 1 13546.500000000002 3.5000000000000004 6.5000000000000009 1.5000000000000002 14.833333492279055 2 15015.500000000002 15887.500000000002
decision_type=8 10 8 1 10 10 8 2 8 10 2 2 2 10 8 2 2 10 8 10 2 2 8 1 2 10 10 10 10 1 2 2
left_child=-1 2 3 4 27 -6 8 9 -4 20 -11 -9 13 17 -12 -16 24 18 -13 -10 22 -22 -8 -23 -17 -25 -20 -2 -7 30 -18 -32
right_child=1 -3 6 -5 5 28 7 11 19 10 14 12 -14 -15 15 16 29 -19 26 -21 21 23 -24 25 -26 -27 -28 -29 -30 -31 31 -33
leaf_value=-0.035186886520604248 -0.0042376178158937804 0.034082459708548597 -0.018706256087437187 0.030676191990122913 0.026892659201000386 0.0039406291844010493 0 0 0.010835360496021306 -0.00088620300071458595 0 0.01559666232212723 0.026188893557645192 0.019253390128592441 0.018245610017683125 0.0022852137017424041 0.021814439679554487 0 0.0048512584336559642 0 -0.0067743391205667934 -0.002475557546715604 0.011511956043311001 0 -0.00734578425032244 0.010147560252745744 -0.0017658376128950745 0.0010259246085818747 0 0.001517842552868765 0 0.015052489714723219
leaf_weight=342.29751513525844 23.407790757715702 65.019215695559978 20.073332354426384 59.901034086942673 47.518403813242912 31.504140168428421 25.713461123406887 24.50130046159029 19.829341966658831 34.513081677258015 22.883126255124807 25.879345081746578 72.363438427448273 54.62718877196312 83.196595042943954 37.557369098067284 30.719269901514053 28.638554066419601 37.024199094623327 17.497839260846376 59.64991220831871 22.681432776153088 23.344370044767857 35.044127359986305 21.224293813109398 23.631645429879427 26.22900366038084 27.499666318297386 25.750825069844723 50.554833143949509 34.335273496806622 39.404028989374638
leaf_count=11597 179 306 236 518 358 291 289 211 191 365 271 191 617 450 840 379 307 240 344 229 635 248 240 362 213 268 237 276 276 500 339 388
internal_value=0.000712353 0.0115799 0.00999458 0.0177759 0.00886966 0.0146102 0.00784546 0.00872516 -0.00219625 0.00573937 0.00850351 0.0141042 0.0155762 0.00988369 0.0099301 0.0110888 0.00741249 0.00396027 0.00654903 0.00434068 0 -0.00130443 0.00547252 0.00125456 0 0.00457319 0.000161701 0 0.00116401 0.0107191 0.0124314 0.00750309
internal_weight=1494.01 1151.72 1086.7 215.582 155.681 104.773 871.116 813.716 57.4005 544.453 354.388 269.263 244.762 172.398 319.875 296.992 213.795 117.771 89.1325 37.3272 190.065 141.007 49.0578 81.3572 58.7817 58.6758 63.2532 50.9075 57.255 155.013 104.459 73.7393
internal_count=22391 10794 10488 1898 1380 925 8590 7934 656 5644 3602 2290 2079 1462 3237 2966 2126 1012 772 420 2042 1513 529 878 592 630 581 455 567 1534 1034 727
cat_boundaries=0 1 2 3
cat_threshold=24 37 19
is_linear=0
shrinkage=0.0352768


Tree=30
num_leaves=33
num_cat=0
split_feature=43 43 64 64 9 1 6 6 50 2 62 64 7 40 1 7 62 64 50 64 64 55 6 64 64 55 55 55 64 62 7 64
split_gain=451.476 26.2563 8.79956 8.70219 8.97289 6.64605 5.09985 5.34799 4.76887 4.96193 4.51152 4.2158 4.57457 4.04571 5.05352 4.58619 3.73316 4.02621 3.69642 3.63385 3.23749 3.04911 2.8997 2.62977 2.31917 1.85999 2.78553 1.35212 1.27839 1.23162 1.51768 0.94668
threshold=0.019999999552965168 0.034999999217689044 6565.0000000000009 3175.0000000000005 13.500000000000002 29.166666984558109 10.500000000000002 1.5000000000000002 154.50000000000003 0.0715506747364998 12656.500000000002 3745.0000000000005 61.500000000000007 5.4713804721832284 8.8333334922790545 133.50000000000003 12570.500000000002 5665.0000000000009 86.500000000000014 5385.0000000000009 6185.0000000000009 0.113341361284256 3.5000000000000004 5285.0000000000009 2565.0000000000005 0.1291419789195061 0.21073190867900851 0.102231252938509 2945.0000000000005 14973.500000000002 194.50000000000003 3515.0000000000005
decision_type=8 10 10 8 2 10 8 10 2 8 2 10 8 10 8 10 2 10 2 10 10 8 8 10 10 8 10 8 10 2 10 8
left_child=-1 3 6 22 8 11 7 -3 9 -5 -10 31 20 14 29 -15 -16 27 25 -7 -13 -9 -2 -12 -24 -11 -27 -18 -26 30 -14 -6
right_child=1 2 -4 4 5 19 -8 21 10 18 23 12 13 15 16 -17 17 -19 -20 -21 -22 -23 24 -25 28 26 -28 -29 -30 -31 -32 -33
leaf_value=-0.035111819704752772 0.029746795087307602 0.02522714122289739 0.00070580813776228947 0.019180516934045974 0 0 0.029706510920333579 0 0 0.012053561857948416 0.030235657899118158 -0.010271581553842765 -0.0098550345807930772 0 0 0.025886542354985428 0.0071646897469621745 0.019484985877389682 -0.0069900190582297952 -0.016640319072263807 0.0045288796945711814 0.013626539472529979 0.016455192748901264 0.0093305133802535339 0 -0.0047738823871442057 0.0099639584740090735 0 0.0085056436223113572 0.0023307102428574192 0 -0.0082212395246149365
leaf_weight=331.9739264305681 28.524207100272179 51.985374100506306 38.740090042352676 24.664138197898865 24.437268137931824 30.074696443974972 123.31903202831745 47.300015218555927 25.535669680684805 32.527927339076996 39.632803440093994 30.810678474605083 31.056917257606983 24.523022808134556 64.739437162876129 30.15147789567709 38.677867576479912 52.539200320839882 32.473393782973289 25.107068940997124 22.852044079452753 42.7899085059762 52.987836107611656 46.910541463643312 30.053928196430206 33.36687508225441 22.51358375698328 23.370088085532188 20.545797497034073 23.812240712344646 24.479245007038116 23.840428940951824
leaf_count=11627 224 301 358 182 237 366 962 389 249 334 359 327 296 207 685 251 399 546 318 331 252 333 499 448 298 336 218 230 205 220 247 230
internal_value=0.000841063 0.0112889 0.0204422 0.00782042 0.00595415 0.00263525 0.0227728 0.0152077 0.011373 0.00546663 0.0174471 0.00438694 0.00583313 0.00756119 0.00481533 0.0170836 0.00817972 0.0119458 0.00108488 -0.00769744 -0.00175216 0.0071977 0.0166571 0.0212719 0.0108637 0.00567521 0 0.00275661 0.00179045 -0.00120024 -0.00502924 -0.00364841
internal_weight=1496.32 1164.34 304.134 860.208 728.097 470.472 265.394 142.075 257.625 145.546 112.079 415.29 367.012 313.349 258.675 54.6745 179.327 114.587 120.882 55.1818 53.6627 90.0899 132.112 86.5433 103.588 88.4084 55.8805 62.048 50.5997 79.3484 55.5362 48.2777
internal_count=22464 10837 2343 8494 7268 4824 1985 1023 2444 1388 1056 4127 3660 3081 2623 458 1860 1175 1206 697 579 722 1226 807 1002 888 554 629 503 763 543 467
is_linear=0
shrinkage=0.0352768


Tree=31
num_leaves=33
num_cat=1
split_feature=43 43 73 64 9 1 64 2 45 50 62 52 50 50 55 64 1 61 61 55 52 61 64 55 64 55 2 64 45 55 61 52
split_gain=431.747 23.8753 21.3431 7.93922 8.41247 7.55096 7.47796 7.07501 6.27468 5.17794 5.68961 5.36169 5.0837 4.83932 3.72331 3.79838 3.02148 4.3986 5.73185 2.701 2.47519 2.11827 2.06753 1.4774 1.36198 1.04407 0.819524 0.577671 0.444239 4.57033 0.378214 0.336536
threshold=0.019999999552965168 0.034999999217689044 0 3175.0000000000005 12.500000000000002 24.166666984558109 6545.0000000000009 0.53883862495422374 0.039736840873956687 154.50000000000003 13383.500000000002 19.500000000000004 4.5000000000000009 75.500000000000014 0.081275403499603285 3715.0000000000005 8.8333334922790545 8.5000000000000018 3.5000000000000004 0.30094340443611151 44.500000000000007 12.500000000000002 2765.0000000000005 0.052015691995620734 5305.0000000000009 0.19388992339372638 0.23582887649536136 5325.0000000000009 0.034683240577578552 0.096225071698427214 13.500000000000002 52.500000000000007
decision_type=8 10 1 8 2 10 8 8 10 2 2 2 2 2 8 8 8 2 2 10 2 2 8 10 10 8 8 8 8 8 2 2
left_child=-1 3 6 8 9 14 28 -4 22 11 -11 12 -5 -7 16 -16 23 18 -18 21 -13 31 -2 26 -12 -22 -6 -15 29 -3 -10 -17
right_child=1 2 7 4 5 13 -8 -9 30 10 24 20 -14 27 15 19 17 -19 -20 -21 25 -23 -24 -25 -26 -27 -28 -29 -30 -31 -32 -33
leaf_value=-0.035034126776907981 0.0092610139545518614 0.01569937064015331 0.015674709032554808 0 0.0046132970597759513 0.0032596700771109527 -0.0012309849578612979 0.045805144806470299 0.03023412580593187 0 0.032173365558936955 -0.0090847643396485597 0.021717671270532049 -0.0010460173188915549 -0.0017390037656338547 0.016736911469206039 0 -0.0013437415850335579 0.01902021034119257 0 0 0 0 -0.0089116428047478803 0.010182540312635265 0.0087543824574368035 -0.0041357045521617005 -0.018444842900902848 0.015963348233602799 -0.00095488630821350946 0.00987556607021816 0.0072903194594954182
leaf_weight=321.1736397985369 40.302179954946041 24.932352356612682 38.161206021904945 21.884954415261745 23.16665031760931 17.433373551815748 34.195135194808245 59.988015815615654 38.309327989816666 25.56460252404213 33.067252293229103 25.612677983939648 31.088412340730429 24.038786165416241 23.585963979363441 64.581631366163492 23.37079830467701 44.182203613221645 37.355290945619345 24.714114867150784 27.907896153628826 21.924642510712147 21.002158485352993 36.620377186685801 37.655719216912985 21.551383957266808 22.143383581191301 25.844327207654715 121.78549597039819 28.425669685006142 33.871359176933765 117.23964164033532
leaf_count=11627 406 221 257 214 218 217 317 433 314 243 291 246 296 285 218 623 253 466 391 227 265 214 221 348 356 199 238 336 873 242 285 1124
internal_value=0.000855815 0.0108922 0.0195841 0.0075708 0.00577171 0.00285001 0.0100613 0.0331893 0.016 0.0116161 0.018358 0.00513914 0.0133681 -0.00713215 0.00473332 0.00753974 0.00016701 0.00468697 0.0109731 0.00908893 0 0.0104227 0.00431713 -0.00400506 0.0233982 0.00348625 0 -0.0132372 0.0135577 0.00501275 0.0234332 0.0116472
internal_weight=1492.68 1171.51 307.488 864.019 730.534 506.201 209.339 98.1492 133.485 224.333 96.2876 128.045 52.9734 67.3165 438.885 252.046 186.839 104.908 60.7261 228.46 75.072 203.746 61.3043 81.9304 70.723 49.4593 45.31 49.8831 175.144 53.358 72.1807 181.821
internal_count=22464 10837 2343 8494 7268 5158 1653 690 1226 2110 890 1220 510 838 4320 2406 1914 1110 644 2188 710 1961 627 804 647 464 456 621 1336 463 599 1747
cat_boundaries=0 1
cat_threshold=24
is_linear=0
shrinkage=0.0352768


Tree=32
num_leaves=33
num_cat=2
split_feature=43 43 73 40 64 64 73 59 7 64 40 59 25 62 63 59 64 52 62 55 63 7 64 59 64 59 59 59 64 64 55 59
split_gain=412.454 21.7429 19.251 7.98859 6.97774 6.91239 6.13735 7.3096 7.10817 12.3723 6.16633 5.80292 4.80689 4.22672 3.87869 3.85521 3.40317 2.65398 2.49422 1.31164 1.27802 3.01439 2.90536 1.87526 1.83811 1.82971 1.70911 1.6279 1.52348 1.65208 0.7865 0.563046
